%YAML:1.0
---
opencv_ml_svm:
   format: 3
   svmType: C_SVC
   kernel:
      type: RBF
      gamma: 5.3830000000000000e+00
   C: 2.6699999999999999e+00
   term_criteria: { epsilon:1.1920928955078125e-07, iterations:1000 }
   var_count: 32
   class_count: 2
   class_labels: !!opencv-matrix
      rows: 2
      cols: 1
      dt: i
      data: [ 0, 1 ]
   sv_total: 1223
   support_vectors:
      - [ 5.87552246e+03, 1.04103613e+04, 1.19388848e+04, 1.23929565e+03,
          2.53052551e+02, 1.50769397e+03, 8.55396875e+03, 6.05767627e+03,
          5.52645000e+04, 2.36250957e+04, 2.41674805e+04, 1.81143984e+04,
          2.18688301e+04, 1.09970088e+04, 3.01242285e+04, 5.86495703e+04,
          2.12133457e+04, 1.92863047e+04, 3.23793086e+04, 1.05141299e+04,
          2.41060762e+04, 4.87517422e+04, 7.19385000e+04, 1.18266572e+04,
          1.43447516e+05, 1.19349914e+05, 1.59054859e+05, 1.88994391e+05,
          1.76921109e+05, 1.31454344e+05, 1.37905016e+05, 1.94684094e+05 ]
      - [ 4.38331836e+03, 1.34223132e+03, 1.17924939e+03, 2.18754614e+03,
          3.07192920e+03, 2.80297760e+02, 7.64618701e+03, 7.29644580e+03,
          2.45524629e+04, 3.24767988e+04, 4.30614805e+04, 6.80251641e+04,
          5.39004375e+04, 2.12050957e+04, 2.57155215e+04, 3.17858320e+04,
          3.03406719e+04, 4.09720625e+04, 3.96935898e+04, 2.50532422e+04,
          3.78260898e+04, 4.58943828e+04, 6.86209062e+04, 3.49838555e+04,
          2.40275750e+05, 294512., 2.27560922e+05, 1.78189297e+05,
          2.02999469e+05, 2.05646312e+05, 2.28328969e+05, 2.26518438e+05 ]
      - [ 8.04600952e+02, 1.54930359e+03, 9.26775696e+02, 1.79769385e+03,
          1.05801929e+03, 0., 2., 5.58861206e+02, 5.32747168e+03,
          3.19735488e+04, 2.47399902e+04, 1.26464375e+04, 6.10212109e+03,
          3.14630469e+04, 3.18387285e+04, 1.35117197e+04, 9.77779102e+03,
          9.52083203e+03, 1.28627246e+04, 1.25943633e+04, 6.57763330e+03,
          5.63295850e+03, 8.28363086e+03, 1.03107715e+04, 1.14971672e+05,
          1.04580500e+05, 1.18246258e+05, 1.43891875e+05, 1.04934180e+05,
          1.40145906e+05, 1.12050883e+05, 1.55514688e+05 ]
      - [ 1.86147552e+02, 1.97498328e+03, 1.14074133e+03, 5.59175049e+02,
          6.96526074e+03, 1.87388477e+04, 1.40927783e+04, 2.08946579e+02,
          2.10522734e+04, 2.03501777e+04, 3.10951543e+04, 2.75452812e+04,
          2.16068613e+04, 3.84135156e+04, 2.24788672e+04, 1.30927061e+04,
          2.41331191e+04, 3.65035039e+04, 3.39147422e+04, 1.28683457e+04,
          2.00383398e+04, 9.08408516e+04, 6.32090234e+04, 1.98849785e+04,
          1.96042578e+05, 1.48082094e+05, 1.29604406e+05, 1.56790672e+05,
          1.36248406e+05, 1.63696062e+05, 2.07497969e+05, 1.16264258e+05 ]
      - [ 5.88809619e+03, 2.93480591e+03, 5.96603809e+03, 3.16456689e+03,
          4.59704736e+03, 2.41409351e+03, 2.27728174e+03, 8.14642773e+03,
          4.49269258e+04, 2.88488828e+04, 3.70047266e+04, 2.10882148e+04,
          2.32092207e+04, 2.25771738e+04, 3.85916992e+04, 4.27072227e+04,
          8.31672559e+03, 1.14253311e+04, 1.48494648e+04, 1.00546904e+04,
          1.15809072e+04, 5.16608594e+03, 5.43377979e+03, 5.70638184e+03,
          2.14319344e+05, 1.94016516e+05, 1.90431422e+05, 2.24390812e+05,
          2.27270719e+05, 1.59539078e+05, 1.65252922e+05, 1.85273125e+05 ]
      - [ 0., 0., 0., 0., 0., 0., 0., 0., 0., 0., 0., 0., 0., 0., 0., 0.,
          7.01168640e+02, 5.76597266e+03, 4.20209766e+03, 1.15707275e+03,
          2.43700781e+03, 2.15625952e+03, 6.30268506e+03, 3.08402313e+02,
          7.52325244e+03, 1.61846318e+04, 2.05393086e+04, 7.14017090e+03,
          7.31394971e+03, 1.80993574e+04, 1.75160156e+04, 8.94193848e+03 ]
      - [ 5.72153809e+03, 6.16847168e+03, 7.07463965e+03, 4.93033301e+03,
          8.69159546e+02, 2.50035667e+01, 8.86052148e+03, 4.97098291e+03,
          4.21303672e+04, 2.43822969e+04, 2.11309238e+04, 1.61483740e+04,
          2.78420586e+04, 2.77754805e+04, 4.24402031e+04, 2.57787266e+04,
          1.56862559e+04, 1.55320332e+04, 1.61182998e+04, 9.26058203e+03,
          1.83189902e+04, 2.06815762e+04, 3.12727754e+04, 1.76446543e+04,
          1.68910844e+05, 1.83596297e+05, 1.33703938e+05, 1.41425953e+05,
          2.13951906e+05, 2.09941203e+05, 1.84291266e+05, 1.51472703e+05 ]
      - [ 0., 0., 0., 0., 0., 0., 0., 0., 0., 0., 0., 0., 0., 0., 0., 0.,
          7.01168579e+02, 5.76597266e+03, 4.20209766e+03, 1.15707275e+03,
          2.43700781e+03, 2.15625952e+03, 6.30268506e+03, 3.08402344e+02,
          7.52325244e+03, 1.61846318e+04, 2.05393086e+04, 7.14017090e+03,
          7.31394971e+03, 1.80993574e+04, 1.75160156e+04, 8.94193848e+03 ]
      - [ 8.94380176e+03, 7.31609375e+03, 7.63164697e+03, 2.47721265e+03,
          1.05420234e+04, 9.14566602e+03, 2.25956133e+04, 9.48664551e+03,
          4.02581641e+04, 2.29212988e+04, 2.10762656e+04, 1.13397119e+04,
          9.46039453e+03, 1.35861602e+04, 2.78749668e+04, 3.28436172e+04,
          5.04087773e+04, 2.07335508e+04, 2.41109629e+04, 3.46648359e+04,
          7.01652891e+04, 4.51829805e+04, 6.02507031e+04, 5.85001367e+04,
          2.36370734e+05, 1.23691047e+05, 1.36402969e+05, 2.19716812e+05,
          2.15982375e+05, 1.39779953e+05, 1.49294562e+05, 226268. ]
      - [ 5.21546387e+03, 5.40443701e+03, 4.34270508e+03, 5.45693799e+03,
          2.83814014e+03, 1.32714783e+03, 1.76463477e+03, 3.47750610e+03,
          3.57788281e+04, 3.84464727e+04, 4.36771484e+04, 3.12732051e+04,
          3.39801445e+04, 2.09253809e+04, 3.05500879e+04, 4.11198281e+04,
          3.55796641e+04, 2.02215625e+04, 2.21586406e+04, 2.83051934e+04,
          3.62902266e+04, 1.50481709e+04, 1.36278086e+04, 3.91007656e+04,
          3.95770688e+05, 2.07042922e+05, 1.55583375e+05, 2.90291719e+05,
          3.53185062e+05, 1.32790516e+05, 1.30014789e+05, 2.18240500e+05 ]
      - [ 0., 0., 0., 0., 0., 0., 0., 0., 4.06568750e+04, 2.33733667e+03,
          4.97974274e+02, 1.55563488e+01, 8.90857391e+01, 2.55310242e+02,
          2.89881934e+03, 3.73355664e+04, 8.73574829e+01, 9.48683357e+00,
          112., 6.36984329e+01, 0., 0., 24., 3.02207775e+01,
          7.45733438e+04, 9.51069844e+04, 1.23494836e+05, 1.18386102e+05,
          1.33641969e+05, 1.02052633e+05, 1.02826562e+05, 1.05822797e+05 ]
      - [ 0., 0., 4.71622772e+01, 3.81914749e+01, 6.30956001e+01,
          3.16227770e+00, 38., 0., 1.25360176e+04, 2.40822705e+03,
          3.15627808e+02, 1.62984665e+02, 1.00209778e+02, 1.73679230e+02,
          9.73023987e+02, 1.92386289e+04, 0., 0., 0., 0., 0., 0., 0., 0.,
          4.04090273e+04, 8.36359141e+04, 1.13902734e+05, 9.21801406e+04,
          7.38008672e+04, 7.51823984e+04, 1.04920086e+05, 8.35224609e+04 ]
      - [ 3.81509277e+03, 1.23399117e+02, 2.76157742e+01, 7.62821289e+02,
          6.96644824e+03, 4.93352570e+02, 7.95975464e+02, 3.41637329e+03,
          2.73248809e+04, 1.73230137e+04, 2.12109688e+04, 2.69540991e+03,
          5.12821338e+03, 2.01262976e+03, 1.73903262e+04, 3.06516328e+04,
          3.73415547e+04, 2.26561475e+03, 7.32980322e+03, 1.75185918e+04,
          3.08488027e+04, 2.18192188e+04, 1.26696709e+04, 2.33543184e+04,
          1.83510188e+05, 8.43034219e+04, 1.47409656e+05, 1.53289688e+05,
          1.40344406e+05, 6.96530547e+04, 1.10089828e+05, 1.75616141e+05 ]
      - [ 8.27616797e+03, 5.27419385e+03, 5.17358105e+03, 9.47215332e+03,
          9.52222290e+02, 0., 2.55088882e+01, 6.88321533e+02,
          3.62668320e+04, 1.41106230e+04, 1.14008027e+04, 4.77551211e+04,
          1.91963594e+04, 1.83097695e+04, 2.59828262e+04, 3.31675586e+04,
          4.56441562e+04, 4.63682520e+03, 6.94644287e+03, 1.12357461e+04,
          2.73103848e+04, 6.70227979e+03, 6.90276855e+03, 7.32071729e+03,
          3.31755969e+05, 1.97006109e+05, 1.59501844e+05, 2.42204547e+05,
          3.04758875e+05, 1.97772766e+05, 1.67719203e+05, 2.39734125e+05 ]
      - [ 6.52740479e+02, 6.97663513e+02, 4.58338318e+02, 2.73020172e+02,
          1.57444409e+03, 4.57164993e+01, 542., 2.22879425e+02,
          2.03964082e+04, 2.22511016e+04, 2.39692949e+04, 2.08379414e+04,
          4.54394062e+04, 1.57224258e+04, 1.82473027e+04, 1.76475547e+04,
          6.13859229e+03, 2.28355811e+03, 2.73439746e+03, 3.15285620e+03,
          6.65292188e+03, 9.48683357e+00, 14., 6.69175491e+01,
          7.74141797e+04, 6.89182109e+04, 4.56920039e+04, 8.14785000e+04,
          9.45988828e+04, 4.61536641e+04, 3.78603477e+04, 4.97780195e+04 ]
      - [ 5.73381592e+02, 2.88697327e+02, 2.64587982e+02, 4.47987061e+02,
          1.27164099e+03, 2.34469757e+02, 3.71790497e+02, 4.06551636e+02,
          7.13029590e+03, 1.57161592e+04, 7.53180908e+03, 5.77893994e+03,
          1.00794980e+04, 3.53294531e+04, 1.98773750e+04, 3.83173926e+03,
          3.26668140e+03, 3.34415552e+03, 7.05584814e+03, 4.71279883e+04,
          1.33091230e+04, 7.11803528e+02, 1.27131665e+03, 2.14737109e+03,
          1.19175406e+05, 1.27235938e+05, 1.22538352e+05, 2.11837250e+05,
          1.27814828e+05, 1.62716094e+05, 2.16612828e+05, 1.00908531e+05 ]
      - [ 8.39446472e+02, 2.82427075e+03, 3.93569604e+03, 2.43140503e+02,
          6.37969910e+02, 1.12028857e+03, 4.94124316e+03, 1.15275391e+03,
          3.72630273e+03, 6.17564844e+03, 2.62080020e+04, 3.73419648e+04,
          2.99421211e+04, 2.85397324e+04, 2.31392422e+04, 3.27181763e+03,
          1.03345781e+04, 1.82209023e+04, 1.95573730e+04, 4.43755859e+03,
          8.66558203e+03, 1.11369072e+04, 2.39356367e+04, 7.80297803e+03,
          8.56043438e+04, 8.03173672e+04, 8.42856328e+04, 7.07937109e+04,
          8.15159531e+04, 1.14229820e+05, 1.92614078e+05, 1.20207109e+05 ]
      - [ 6.45827637e+03, 4.40341895e+03, 1.98938428e+03, 3.25698071e+03,
          2.38288794e+03, 3.25730176e+03, 4.26822363e+03, 3.72007495e+03,
          1.29595625e+04, 3.08288438e+04, 3.54336445e+04, 1.53513994e+04,
          1.76577773e+04, 2.30194609e+04, 2.30752109e+04, 1.16015225e+04,
          2.88820293e+04, 1.09926768e+04, 1.68684746e+04, 1.74116660e+04,
          4.04318203e+04, 2.62353652e+04, 3.26593281e+04, 2.31120566e+04,
          9.92202344e+04, 1.34881188e+05, 1.50080859e+05, 1.83100109e+05,
          9.03238828e+04, 1.08174867e+05, 1.14021859e+05, 1.26773344e+05 ]
      - [ 5.74168018e+03, 4.85055762e+03, 6.38026562e+03, 2.53676514e+03,
          3.14178760e+03, 5.41663232e+03, 1.34554150e+04, 4.34313232e+03,
          3.63709570e+04, 3.03076738e+04, 3.33640391e+04, 2.72656328e+04,
          2.53746816e+04, 2.82816641e+04, 3.50530586e+04, 3.08408105e+04,
          1.36575840e+04, 1.39421680e+04, 3.04890977e+04, 2.07181289e+04,
          1.20060146e+04, 1.03166084e+04, 1.69550605e+04, 1.31933984e+04,
          1.84062656e+05, 1.58761109e+05, 1.70713938e+05, 1.66398625e+05,
          1.79864812e+05, 1.80231172e+05, 2.09735109e+05, 1.67550156e+05 ]
      - [ 2.86503198e+03, 3.06721729e+03, 7.41631348e+03, 4.72329053e+03,
          5.44038477e+03, 5.43536914e+03, 5.33548291e+03, 2.48971167e+03,
          2.81092168e+04, 4.00060586e+04, 2.67635977e+04, 1.42304404e+04,
          1.68378105e+04, 2.14207676e+04, 2.96842402e+04, 3.45661914e+04,
          3.67408320e+04, 3.60099375e+04, 5.33942539e+04, 2.67699004e+04,
          2.36836699e+04, 1.73365879e+04, 1.65598848e+04, 1.92847383e+04,
          1.62865078e+05, 1.71225750e+05, 2.24065500e+05, 1.53492188e+05,
          1.66579172e+05, 1.60760797e+05, 1.48658344e+05, 1.43513562e+05 ]
      - [ 1.44134580e+04, 5.00314697e+03, 3.32197192e+03, 2.09710425e+03,
          1.13156140e+03, 6.09673706e+02, 2.43399512e+03, 5.35161963e+03,
          3.37956836e+04, 1.46126162e+04, 2.30166289e+04, 4.63070234e+04,
          3.47898242e+04, 1.59061699e+04, 2.92655371e+04, 2.75020859e+04,
          2.95374863e+04, 3.48872305e+04, 5.56224062e+04, 2.27463574e+04,
          2.47512461e+04, 7.11255908e+03, 1.18391387e+04, 1.25791084e+04,
          1.87544125e+05, 1.31109609e+05, 1.51917062e+05, 2.07740016e+05,
          1.87185719e+05, 1.51696125e+05, 1.56889422e+05, 2.10067969e+05 ]
      - [ 1.09030791e+04, 1.73927383e+02, 1.09783093e+03, 3.92544373e+02,
          1.22483789e+04, 1.17078154e+04, 3.18000508e+04, 2.08293604e+03,
          1.86799297e+04, 2.89514102e+04, 5.36172734e+04, 3.97652383e+04,
          6.15264648e+04, 4.26869922e+04, 4.04444336e+04, 2.22149707e+04,
          5.23267188e+04, 5.52654141e+04, 7.87379219e+04, 7.17959219e+04,
          6.91535781e+04, 2.18782207e+04, 4.00204258e+04, 6.49404609e+04,
          3.05318625e+05, 1.34873969e+05, 1.36407453e+05, 2.54792016e+05,
          3.31088406e+05, 2.07437766e+05, 2.15468641e+05, 2.96354625e+05 ]
      - [ 1.21129553e+03, 4.79026758e+03, 7.69990234e+03, 2.39494110e+02,
          1.38327087e+03, 3.25686548e+03, 5.67830371e+03, 3.84802734e+02,
          1.42199062e+04, 1.21315859e+04, 2.50057109e+04, 1.92089805e+04,
          1.04672871e+04, 1.16761299e+04, 2.46953516e+04, 2.18118652e+04,
          9.76712207e+03, 2.06581172e+04, 2.30835273e+04, 1.16086543e+04,
          1.06363027e+04, 1.81961953e+04, 2.18182578e+04, 1.16983594e+04,
          6.76104922e+04, 1.40553031e+05, 1.96931562e+05, 8.16335547e+04,
          9.12105938e+04, 1.50089688e+05, 1.78531141e+05, 8.66116953e+04 ]
      - [ 8.01052686e+03, 2.24458838e+03, 3.22011694e+03, 9.65679626e+02,
          7.43013965e+03, 6.00112695e+03, 2.85945117e+03, 1.85656860e+03,
          2.66591211e+04, 6.00030234e+04, 5.39760938e+04, 1.55839463e+04,
          2.01065508e+04, 4.76463164e+04, 5.04725898e+04, 1.99150195e+04,
          1.88497969e+04, 2.64978867e+04, 4.30199023e+04, 9.22279688e+03,
          1.12707822e+04, 1.71893477e+04, 2.33998262e+04, 7.76775000e+03,
          1.92203625e+05, 3.36587438e+05, 3.52242125e+05, 1.73923812e+05,
          1.60662281e+05, 3.04805500e+05, 3.24950750e+05, 1.59383781e+05 ]
      - [ 1.98673193e+03, 3.43087109e+03, 1.00376758e+04, 1.33473115e+04,
          1.16069980e+04, 7.23270020e+02, 9.93501270e+03, 4.34371680e+03,
          1.51891709e+04, 1.60527236e+04, 2.67981309e+04, 2.03536953e+04,
          3.23495879e+04, 2.28547012e+04, 2.65637422e+04, 1.53180557e+04,
          7.93837734e+04, 4.09595625e+04, 5.21415234e+04, 4.93977852e+04,
          4.73249336e+04, 2.20793652e+04, 1.32199639e+04, 2.22518086e+04,
          1.65052469e+05, 1.19753844e+05, 1.18252750e+05, 1.44402281e+05,
          1.45349594e+05, 1.53662438e+05, 1.44379609e+05, 1.63349797e+05 ]
      - [ 6.36568527e+01, 1.21655245e+01, 9.25948334e+01, 6.37224159e+01,
          7.33766663e+02, 1.93275781e+03, 1.92308948e+03, 1.81672333e+02,
          2.06475605e+04, 4.64263379e+03, 2.45121997e+03, 6.26044128e+02,
          7.06358337e+02, 2.84082349e+03, 8.24950879e+03, 8.03375439e+03,
          1.85814746e+04, 1.00784727e+04, 6.49008838e+03, 1.49107812e+04,
          1.17286738e+04, 5.47003076e+03, 9.82116113e+03, 1.45577529e+04,
          1.26041703e+05, 7.30288672e+04, 7.06708594e+04, 1.14484398e+05,
          1.21883266e+05, 6.94387969e+04, 8.28009141e+04, 1.56081719e+05 ]
      - [ 5.60814355e+03, 3.10909473e+03, 2.06852979e+03, 0., 0., 0.,
          3.04253387e+01, 4.46955750e+02, 2.45764805e+04, 3.80389961e+04,
          3.17432559e+04, 2.73783281e+04, 3.95576094e+04, 4.56836484e+04,
          3.11875996e+04, 2.29433789e+04, 3.59171265e+03, 1.04896074e+04,
          1.67499766e+04, 2.73316699e+03, 9.54689514e+02, 6.00344963e+01,
          5.57550049e+01, 8.12970520e+02, 1.66357188e+05, 2.08417766e+05,
          2.23729062e+05, 1.47957266e+05, 1.54386828e+05, 2.10168375e+05,
          2.53494359e+05, 147959. ]
      - [ 1.16469861e+03, 6.47969727e+02, 5.87490112e+02, 4.97709229e+02,
          2.30863739e+02, 2.92609314e+02, 8.63394165e+02, 2.25388647e+03,
          8.82214648e+03, 1.22205312e+04, 9.98359180e+03, 5.08423584e+03,
          7.80821973e+03, 1.40785186e+04, 1.19266357e+04, 4.34143359e+03,
          2.63164795e+03, 2.05089185e+03, 2.13427563e+03, 5.03099854e+03,
          4.83905029e+03, 3.76928296e+03, 6.24688525e+03, 3.19430444e+03,
          5.90032305e+04, 6.60887656e+04, 6.43146836e+04, 6.79859141e+04,
          6.86361484e+04, 7.40225234e+04, 6.67407109e+04, 7.40027578e+04 ]
      - [ 3.54966602e+03, 3.72943506e+03, 5.62437158e+03, 4.79248877e+03,
          1.41457119e+04, 9.44302148e+03, 6.27038623e+03, 3.01177856e+03,
          2.81579004e+04, 2.85979434e+04, 3.69193945e+04, 5.23258867e+04,
          7.10742188e+04, 2.49069980e+04, 2.93653945e+04, 2.55529922e+04,
          6.58224844e+04, 3.13689199e+04, 1.96790371e+04, 3.57225703e+04,
          4.93238438e+04, 2.86739414e+04, 2.66192871e+04, 4.08723984e+04,
          1.72060656e+05, 1.48043406e+05, 1.43527344e+05, 1.85581531e+05,
          1.89074156e+05, 1.29539570e+05, 1.65540875e+05, 1.96793109e+05 ]
      - [ 3.19171948e+03, 4.96906104e+03, 8.66680859e+03, 7.49731812e+02,
          4.82712372e+02, 5.22711230e+03, 3.37366211e+04, 9.83038269e+02,
          3.35177578e+04, 5.66071484e+03, 2.98443506e+03, 1.87587207e+04,
          8.18315674e+03, 5.40134961e+03, 6.78936768e+03, 2.92051992e+04,
          4.24884727e+04, 4.29571250e+04, 2.66454785e+04, 1.89034316e+04,
          3.22183867e+04, 7.47371016e+04, 7.74118906e+04, 1.79446348e+04,
          1.82268094e+05, 2.10345516e+05, 1.39979031e+05, 1.40800125e+05,
          1.56318312e+05, 2.20659672e+05, 1.98288688e+05, 1.25580727e+05 ]
      - [ 2.87204248e+03, 1.83133301e+03, 4.34438428e+03, 3.31890308e+03,
          2.25174561e+03, 4.55960464e+01, 7.60573181e+02, 1.68178516e+03,
          1.68653223e+04, 1.81428750e+04, 2.69219023e+04, 2.22618750e+04,
          2.54982441e+04, 3.42795430e+04, 2.52221504e+04, 1.30779385e+04,
          1.36878701e+04, 5.94332275e+03, 5.78622461e+03, 1.06757510e+04,
          1.99007734e+04, 1.09782529e+04, 1.17782686e+04, 1.91435215e+04,
          1.31196922e+05, 1.24515836e+05, 1.45943844e+05, 1.67512594e+05,
          1.36368922e+05, 1.14284453e+05, 1.39384141e+05, 1.70101406e+05 ]
      - [ 1.94280469e+03, 1.04963647e+03, 1.13233313e+03, 2.07485062e+02,
          7.89622726e+01, 0., 1.30384054e+01, 1.63614975e+02,
          5.76830322e+03, 3.04588164e+04, 1.88370547e+04, 6.75598340e+03,
          5.98342725e+03, 8.12581445e+03, 1.23484629e+04, 3.11408691e+03,
          2.91067480e+03, 6.59311218e+02, 9.98710876e+02, 1.92285901e+03,
          4.65427441e+03, 2.75882397e+03, 1.14452246e+04, 6.98857080e+03,
          5.99351445e+04, 1.71636562e+05, 1.59314453e+05, 6.59301641e+04,
          5.79054922e+04, 8.54740391e+04, 8.52404453e+04, 6.89823984e+04 ]
      - [ 2.73567676e+03, 6.14326050e+02, 6.89805542e+02, 8.74878845e+02,
          1.96545459e+03, 8.93176758e+02, 1.33037134e+03, 1.81303162e+03,
          6.61641309e+03, 2.92233765e+03, 1.93847988e+04, 1.65767090e+04,
          2.80338047e+04, 1.23125986e+04, 9.46951855e+03, 2.75871826e+03,
          1.69486836e+04, 1.42865713e+04, 1.27196719e+04, 8.63429883e+03,
          8.02550098e+03, 6.10287451e+03, 9.12077734e+03, 5.75888086e+03,
          1.24466961e+05, 9.41555156e+04, 2.08263781e+05, 1.29698039e+05,
          1.09512148e+05, 8.98727500e+04, 1.74751078e+05, 1.45767797e+05 ]
      - [ 1.00546185e+03, 1.45912598e+03, 1.39067285e+03, 4.98416534e+02,
          8.81801208e+02, 1.64727949e+04, 2.30886641e+04, 9.53249023e+02,
          2.75240234e+04, 3.72583867e+04, 4.48612656e+04, 2.31341113e+04,
          3.62186953e+04, 4.17890195e+04, 4.11932930e+04, 1.90069922e+04,
          3.04392070e+04, 1.42926133e+04, 2.01240312e+04, 1.33220029e+04,
          3.77581875e+04, 6.69861016e+04, 5.44037812e+04, 3.08664492e+04,
          2.12065172e+05, 2.02025734e+05, 2.86066625e+05, 2.50717094e+05,
          2.30469969e+05, 2.04332906e+05, 3.07291625e+05, 2.84487781e+05 ]
      - [ 0., 0., 0., 0., 0., 0., 0., 0., 0., 0., 0., 0., 0., 0., 0., 0.,
          7.01168579e+02, 5.76597266e+03, 4.20209766e+03, 1.15707275e+03,
          2.43700781e+03, 2.15625952e+03, 6.30268506e+03, 3.08402344e+02,
          7.52325244e+03, 1.61846318e+04, 2.05393086e+04, 7.14017090e+03,
          7.31394971e+03, 1.80993574e+04, 1.75160156e+04, 8.94193848e+03 ]
      - [ 1.71034143e+03, 2.17201733e+03, 2.05516650e+03, 1.44563196e+03,
          1.85125806e+03, 1.68145679e+03, 3.04921851e+03, 2.43159839e+03,
          4.12843848e+03, 7.86016846e+03, 7.89737158e+03, 3.58624194e+03,
          4.98250244e+03, 5.12902490e+03, 9.96681250e+03, 7.92489160e+03,
          6.83578174e+03, 6.84180322e+03, 7.70256494e+03, 5.69640869e+03,
          6.73962646e+03, 4.28180371e+03, 5.60589453e+03, 3.92844189e+03,
          5.66456016e+04, 6.57234922e+04, 6.27530898e+04, 6.61025000e+04,
          6.63942500e+04, 5.03468828e+04, 8.21600703e+04, 5.34271562e+04 ]
      - [ 4.44849365e+03, 3.26546582e+03, 7.88047705e+03, 1.40205498e+04,
          1.13943105e+04, 6.65731006e+03, 6.55285986e+03, 1.38225659e+03,
          1.64042227e+04, 3.60281250e+04, 2.49358613e+04, 2.82141797e+04,
          2.40315762e+04, 2.77733086e+04, 2.63508008e+04, 1.09467871e+04,
          2.99919238e+04, 3.49235625e+04, 3.28169648e+04, 2.94922871e+04,
          3.70107812e+04, 2.29460410e+04, 2.92015098e+04, 3.68471094e+04,
          1.65067547e+05, 2.42824828e+05, 2.09390625e+05, 2.17311375e+05,
          2.21710922e+05, 1.93172953e+05, 1.87760453e+05, 1.97124734e+05 ]
      - [ 5.27540588e+02, 1.67151276e+02, 3.76083984e+02, 2.68737946e+02,
          3.88183441e+02, 1.85956650e+02, 4.49442139e+02, 5.93307068e+02,
          1.94130957e+03, 7.94023376e+02, 9.13525696e+02, 6.79515686e+02,
          8.50079773e+02, 9.58297363e+02, 3.45362012e+03, 7.19744189e+03,
          1.12994268e+04, 4.35610791e+03, 9.98801270e+03, 1.86740605e+04,
          8.39778125e+03, 2.23780371e+03, 1.39440049e+04, 1.91307852e+04,
          1.00170664e+05, 4.03763398e+04, 8.75856719e+04, 1.38794609e+05,
          1.07307797e+05, 7.33477812e+04, 1.05649781e+05, 1.53200172e+05 ]
      - [ 3.83620547e+04, 2.66720605e+03, 4.25897607e+03, 1.14944633e+02,
          4.10398407e+02, 1.17462273e+02, 4.13754517e+02, 4.87367401e+02,
          8.06161768e+03, 2.58672383e+04, 3.30201094e+04, 2.25764355e+04,
          4.12390781e+04, 4.59012266e+04, 4.74586680e+04, 8.31110449e+03,
          3.80095977e+04, 3.86932202e+03, 2.38483862e+03, 1.70451904e+03,
          2.41771426e+04, 5.92330078e+04, 2.44103789e+04, 1.08804932e+04,
          1.08364906e+05, 1.31802859e+05, 1.43931422e+05, 1.20830773e+05,
          1.14429219e+05, 1.15188703e+05, 2.29845828e+05, 1.59509203e+05 ]
      - [ 1.56064896e+02, 8.00470642e+02, 2.92785815e+03, 2.30198242e+02,
          9.02608521e+02, 1.07653723e+03, 6.07935974e+02, 6.74843750e+01,
          1.84057910e+04, 4.31551289e+04, 2.70605000e+04, 1.21732520e+04,
          2.12374961e+04, 3.42000977e+04, 5.12025664e+04, 1.42044043e+04,
          6.81183496e+03, 1.02509131e+04, 2.18093408e+03, 3.85858521e+03,
          9.78130566e+03, 8.78851953e+04, 6.22518789e+04, 1.84361055e+04,
          1.52121328e+05, 3.09635281e+05, 1.93678922e+05, 7.48993750e+04,
          1.47467219e+05, 3.30648938e+05, 2.84014031e+05, 1.19086477e+05 ]
      - [ 9.76040527e+03, 1.81539697e+03, 1.32488391e+03, 2.54083301e+03,
          1.27428027e+03, 1.05555164e+03, 2.06115039e+03, 1.16221006e+04,
          4.77774453e+04, 5.34487012e+03, 1.10591543e+04, 3.31636836e+04,
          3.76613242e+04, 9.60833008e+03, 1.38186055e+04, 3.72644453e+04,
          1.47979639e+04, 1.32303213e+04, 1.62685234e+04, 2.28671445e+04,
          4.05894922e+04, 1.04294531e+04, 1.22125703e+04, 1.61534111e+04,
          1.61402109e+05, 1.08072594e+05, 1.10286539e+05, 137433.,
          1.30118688e+05, 7.66511250e+04, 6.77661875e+04, 9.41610625e+04 ]
      - [ 0., 0., 0., 0., 0., 0., 0., 0., 0., 0., 0., 0., 0., 0., 0., 0.,
          7.01168640e+02, 5.76597266e+03, 4.20209766e+03, 1.15707275e+03,
          2.43700781e+03, 2.15625952e+03, 6.30268506e+03, 3.08402313e+02,
          7.52325244e+03, 1.61846318e+04, 2.05393086e+04, 7.14017090e+03,
          7.31394971e+03, 1.80993574e+04, 1.75160156e+04, 8.94193848e+03 ]
      - [ 5.47472656e+03, 1.02202129e+04, 4.58875635e+03, 6.54540234e+03,
          6.18288330e+03, 4.65609082e+03, 8.50709277e+03, 8.02676807e+03,
          3.38889102e+04, 7.01088721e+03, 1.21932480e+04, 1.19281289e+04,
          7.82009521e+03, 1.60815420e+04, 3.26007129e+04, 6.44004414e+04,
          4.36616641e+04, 2.60123145e+04, 3.73075859e+04, 4.04427500e+04,
          4.99184766e+04, 2.80910703e+04, 3.68172969e+04, 3.99769297e+04,
          2.48991125e+05, 1.59614625e+05, 2.26319578e+05, 2.39382766e+05,
          2.03078453e+05, 1.54138766e+05, 2.41174172e+05, 3.17141031e+05 ]
      - [ 1.28648887e+04, 9.10050476e+02, 0., 0., 2.62426414e+01,
          2.73006458e+01, 2.91904831e+01, 1.13137083e+01, 6.27770273e+04,
          1.99298792e+03, 8.54127502e+02, 8.44497498e+02, 5.32085754e+02,
          7.18607117e+02, 2.28588892e+03, 9.22051562e+04, 2.12390273e+04,
          7.21603828e+04, 6.43505625e+04, 1.90743613e+04, 1.23731738e+04,
          4.32546387e+03, 9.07330444e+02, 8.70896301e+02, 1.60347750e+05,
          5.18196641e+04, 5.98701328e+04, 9.94390234e+04, 2.43235703e+05,
          1.03767961e+05, 1.19457094e+05, 9.60891328e+04 ]
      - [ 2.62923828e+02, 1.75430740e+02, 1.23735791e+03, 8.46954651e+02,
          2.53351318e+03, 3.44377344e+03, 2.13365820e+03, 4.87231659e+02,
          7.70256641e+03, 7.10839551e+03, 9.41518652e+03, 2.14175293e+03,
          3.96415454e+03, 5.16338574e+03, 4.02551523e+04, 7.03327734e+03,
          7.96404785e+03, 1.66806523e+04, 2.13753066e+04, 2.95489722e+03,
          5.35801660e+03, 2.34944453e+04, 4.07958672e+04, 4.30277344e+03,
          1.59141094e+05, 1.76756781e+05, 1.40565172e+05, 9.27498750e+04,
          1.31969969e+05, 1.79509047e+05, 1.91128375e+05, 1.33092734e+05 ]
      - [ 1.24012830e+03, 1.58155017e+03, 9.73846985e+02, 1.42046924e+03,
          1.66340186e+03, 1.49393335e+03, 2.09275269e+03, 1.38096521e+03,
          1.10113398e+04, 1.38135898e+04, 1.73554961e+04, 2.01879160e+04,
          2.71814648e+04, 2.21278105e+04, 7.81587939e+03, 7.28588623e+03,
          6.43563623e+03, 3.47656030e+03, 3.57855371e+03, 5.54299365e+03,
          1.91379902e+04, 8.64291113e+03, 7.65717676e+03, 8.74995801e+03,
          8.56043594e+04, 1.05092914e+05, 1.15230117e+05, 1.35418609e+05,
          9.33729297e+04, 9.53502422e+04, 1.01291438e+05, 1.02943203e+05 ]
      - [ 1.22530750e+03, 3.58195160e+02, 1.17514746e+03, 2.27678101e+03,
          12., 0., 2.20891590e+01, 3.74266174e+02, 1.86101504e+04,
          6.10400049e+03, 8.86929297e+03, 5.43596914e+04, 3.38978594e+04,
          6.60240967e+03, 7.97177881e+03, 2.74728125e+04, 8.72422109e+04,
          1.08327910e+04, 2.83088535e+04, 6.97426797e+04, 4.19909570e+04,
          5.55614404e+03, 2.20745215e+04, 3.59252695e+04, 3.37497719e+05,
          1.17911266e+05, 1.24466781e+05, 3.00596344e+05, 1.52828234e+05,
          5.33326719e+04, 1.35221297e+05, 333102. ]
      - [ 3.72693896e+03, 6.64475879e+03, 3.06535645e+03, 2.82842708e+00,
          5.55462219e+02, 3.53175854e+03, 5.88544531e+03, 4.62477100e+03,
          2.12440254e+04, 9.25160547e+03, 2.28693477e+04, 1.94049551e+04,
          8.91720117e+03, 1.35508926e+04, 1.72914277e+04, 2.38434551e+04,
          1.07604463e+04, 2.16691582e+04, 2.89915156e+04, 1.37576279e+04,
          5.16282568e+03, 6.76201172e+03, 9.73208789e+03, 7.71261523e+03,
          1.51997953e+05, 1.26480008e+05, 1.79601125e+05, 1.97845125e+05,
          1.42721281e+05, 1.04089820e+05, 1.92577359e+05, 2.18959609e+05 ]
      - [ 1.19865601e+03, 2.00278284e+03, 7.93790771e+02, 1.46102432e+02,
          3.51869415e+02, 5.37767212e+02, 1.40853821e+03, 6.78111755e+02,
          3.40654609e+04, 6.34862227e+04, 3.06385352e+04, 1.33235732e+04,
          8.33269629e+03, 1.89742422e+04, 5.53264336e+04, 4.94199102e+04,
          1.81303750e+04, 1.39124922e+05, 3.67418711e+04, 2.07889252e+02,
          1.97853027e+03, 1.02711804e+03, 3.77606445e+02, 3.28661842e+01,
          1.49896844e+05, 1.11416164e+05, 1.28978086e+05, 1.35000422e+05,
          1.74845656e+05, 1.93627234e+05, 2.68537094e+05, 1.14902914e+05 ]
      - [ 4.99337451e+03, 8.27761914e+03, 2.10202480e+04, 1.10753623e+04,
          8.11220459e+03, 2.79580786e+03, 8.88018372e+02, 1.60561493e+02,
          1.81847891e+04, 1.61470332e+04, 2.41356133e+04, 3.41159336e+04,
          4.23732148e+04, 3.74924883e+04, 3.40380117e+04, 2.80710586e+04,
          3.37771211e+04, 2.04622363e+04, 2.17575098e+04, 2.95474961e+04,
          4.43804141e+04, 3.11432656e+04, 2.80648125e+04, 2.86513594e+04,
          1.93439391e+05, 1.30391234e+05, 1.38590844e+05, 2.20900703e+05,
          2.68897219e+05, 1.84608219e+05, 1.82206453e+05, 1.83205734e+05 ]
      - [ 1.58308066e+04, 6.05630371e+03, 6.72640967e+03, 1.80318127e+03,
          2.52769360e+03, 1.50187939e+03, 1.56516174e+03, 5.07125146e+03,
          4.05580234e+04, 3.96676445e+04, 1.56183545e+04, 2.68498516e+04,
          3.17931387e+04, 3.39670820e+04, 3.01013418e+04, 8.80773125e+04,
          3.54501250e+04, 2.18830469e+04, 2.23857148e+04, 3.10894434e+04,
          2.85503457e+04, 3.92713242e+04, 3.92332422e+04, 1.08893320e+04,
          1.87383078e+05, 2.04835844e+05, 2.07189234e+05, 1.97936500e+05,
          1.97219312e+05, 2.25904641e+05, 2.05553859e+05, 1.60007172e+05 ]
      - [ 3.31471130e+02, 2.54175980e+02, 6.24687988e+02, 2.00899734e+02,
          1.92158569e+02, 6.33546333e+01, 1.66828857e+02, 1.58520264e+02,
          8.32153906e+04, 1.07169922e+04, 2.64944189e+03, 1.63130151e+03,
          6.75837109e+03, 1.12017883e+03, 5.32335205e+03, 6.69840859e+04,
          2.98226719e+04, 5.11059766e+04, 6.96704375e+04, 1.94503945e+04,
          3.72333984e+03, 1.90318555e+04, 1.10851074e+04, 6.18020605e+03,
          3.53080844e+05, 1.68698609e+05, 1.54489609e+05, 4.12952062e+05,
          2.74197594e+05, 1.53140375e+05, 1.33380297e+05, 3.55595594e+05 ]
      - [ 6.11820898e+03, 1.93791738e+04, 1.66546191e+04, 8.04595337e+02,
          6.52506250e+03, 2.28089575e+03, 1.16163037e+03, 4.38551239e+02,
          5.62813789e+04, 2.27052461e+04, 1.75933457e+04, 4.84493711e+04,
          4.47807227e+04, 3.21869590e+04, 3.00207617e+04, 4.12023594e+04,
          4.30893438e+04, 7.26099609e+04, 7.43075312e+04, 3.25782285e+04,
          2.74538867e+04, 1.38857139e+04, 8.49208789e+03, 1.59101133e+04,
          2.13322766e+05, 161330., 1.38952141e+05, 2.16659953e+05,
          1.77829219e+05, 2.01296609e+05, 1.50167266e+05, 1.85412297e+05 ]
      - [ 6.88882031e+03, 1.43745498e+04, 1.28757881e+04, 2.01703357e+03,
          6.96866309e+03, 8.65471484e+03, 1.11732041e+04, 7.95249268e+03,
          3.48650508e+04, 4.96877422e+04, 4.40437852e+04, 6.63408047e+04,
          5.08449883e+04, 2.56848184e+04, 4.57327773e+04, 3.70969766e+04,
          3.19674531e+04, 8.54870938e+04, 105238., 2.70205898e+04,
          2.87024590e+04, 3.28566797e+04, 2.89946934e+04, 3.72758789e+04,
          2.19196359e+05, 3.02839094e+05, 2.90182875e+05, 2.63852312e+05,
          2.51701203e+05, 2.58088422e+05, 2.65547969e+05, 3.06238250e+05 ]
      - [ 4.21929321e+02, 0., 0., 4.09801941e+02, 1.79816943e+03,
          1.14447295e+04, 1.93840273e+04, 2.45779834e+03, 4.54831680e+04,
          2.83252500e+04, 3.41446406e+04, 4.57716484e+04, 2.67404844e+04,
          3.30188672e+04, 2.63434688e+04, 3.50220078e+04, 8.26281152e+03,
          8.74166211e+03, 1.11214111e+04, 1.86771602e+04, 6.17263320e+04,
          3.79041484e+04, 3.99316562e+04, 2.82815684e+04, 2.92958281e+05,
          1.59427281e+05, 1.81487125e+05, 2.87642844e+05, 2.42652578e+05,
          1.30360133e+05, 1.32835641e+05, 2.70504594e+05 ]
      - [ 2.73631250e+03, 3.46749390e+03, 1.03618164e+04, 5.92477295e+02,
          1.27665088e+03, 5.71274536e+02, 4.95880768e+02, 3.00195874e+03,
          2.42233008e+04, 3.18752363e+04, 1.20576748e+04, 3.59438696e+03,
          7.89985059e+03, 1.95736523e+04, 2.87409277e+04, 4.63858516e+04,
          5.72640547e+04, 5.08993984e+04, 9.67018750e+04, 3.20336855e+04,
          3.05126348e+04, 2.28374414e+04, 3.76260078e+04, 2.21334668e+04,
          1.78918844e+05, 186037., 1.67784781e+05, 1.34285156e+05,
          2.43500281e+05, 2.73385719e+05, 1.97194547e+05, 1.90669344e+05 ]
      - [ 3.29356299e+03, 1.46753650e+03, 4.46042334e+03, 8.57633105e+03,
          1.84436348e+04, 3.61117358e+03, 1.36052910e+04, 8.48553125e+03,
          1.35844209e+04, 6.85464453e+03, 1.87407051e+04, 2.64023926e+04,
          2.75175840e+04, 1.65608184e+04, 1.10899814e+04, 2.76894414e+04,
          3.45615391e+04, 2.00495117e+04, 3.06801875e+04, 3.14869766e+04,
          3.29532031e+04, 2.56456465e+04, 1.75167227e+04, 2.27226562e+04,
          3.16175438e+05, 2.41516938e+05, 1.96152422e+05, 3.12494344e+05,
          2.50577766e+05, 1.50511453e+05, 1.38252406e+05, 2.50316344e+05 ]
      - [ 8.69742773e+03, 4.88144409e+02, 1.02747192e+03, 4.39922314e+03,
          1.02131094e+04, 2.35235474e+03, 5.03774268e+03, 8.45113379e+03,
          2.69711855e+04, 2.45171445e+04, 4.06144492e+04, 3.00422598e+04,
          1.77055449e+04, 2.41401445e+04, 3.27470078e+04, 1.46271250e+04,
          2.46294609e+04, 1.67037480e+04, 1.49887158e+04, 2.01087598e+04,
          2.42058691e+04, 1.38145303e+04, 1.32704053e+04, 1.90557949e+04,
          1.56992828e+05, 1.36304500e+05, 1.85037859e+05, 1.68887125e+05,
          1.53248078e+05, 1.34695453e+05, 1.38867016e+05, 1.72724250e+05 ]
      - [ 5.08563916e+03, 1.08560364e+03, 2.35733325e+03, 5.15315771e+03,
          6.29185449e+03, 9.28395874e+02, 1.87238501e+03, 5.52258936e+03,
          9.93011953e+04, 2.74324316e+04, 3.51693359e+04, 4.89709453e+04,
          4.70628047e+04, 3.94099961e+04, 2.49096797e+04, 9.08201250e+04,
          4.39578438e+04, 2.70465605e+04, 2.29896426e+04, 4.46262891e+04,
          2.71123320e+04, 9.30954785e+03, 1.14811797e+04, 2.43790820e+04,
          3.29131531e+05, 1.27747023e+05, 2.38108172e+05, 3.49961281e+05,
          3.20878031e+05, 1.78758266e+05, 1.97301859e+05, 3.64053438e+05 ]
      - [ 2.05983322e+02, 9.02928162e+02, 2.71952759e+02, 1.11928828e+04,
          3.44895264e+03, 1.42842031e+04, 9.23781543e+03, 4.18503516e+03,
          9.00742871e+03, 1.49918096e+04, 1.00260605e+04, 2.98285469e+04,
          4.32760195e+04, 1.81669375e+04, 2.36872969e+04, 1.60692109e+04,
          9.28980176e+03, 4.22161426e+03, 4.98266846e+03, 2.13375000e+04,
          3.86441172e+04, 2.68536875e+04, 5.73322578e+04, 1.64225859e+04,
          2.32186672e+05, 2.10518750e+05, 2.15312109e+05, 1.80463906e+05,
          1.69124828e+05, 1.41953281e+05, 2.44680266e+05, 2.39427516e+05 ]
      - [ 3.86830420e+03, 1.01956787e+04, 5.29376172e+03, 2.04740564e+03,
          6.98964453e+03, 2.16945293e+04, 1.64029023e+04, 1.88417065e+03,
          1.77979238e+04, 1.11550875e+05, 7.89536953e+04, 1.89452480e+04,
          1.93131680e+04, 1.03568023e+05, 4.78873555e+04, 6.10791553e+03,
          4.61554922e+04, 2.26982754e+04, 2.78380918e+04, 3.63147852e+04,
          6.14351797e+04, 3.44261562e+04, 2.60747422e+04, 5.66839688e+04,
          2.64522312e+05, 2.10747250e+05, 2.00511125e+05, 2.53139406e+05,
          2.40127609e+05, 1.40084547e+05, 1.63964375e+05, 1.90668484e+05 ]
      - [ 9.81714160e+03, 3.13187183e+03, 7.36710693e+03, 2.17538359e+04,
          8.24777539e+03, 1.82406665e+03, 8.81652539e+03, 3.64842480e+03,
          2.93803008e+04, 1.74767324e+04, 3.84735586e+04, 4.21048359e+04,
          4.07977656e+04, 2.23265762e+04, 4.33902344e+04, 3.87721875e+04,
          4.49597969e+04, 4.73079141e+04, 4.98180898e+04, 2.91916816e+04,
          3.91999805e+04, 4.79102695e+04, 9.45713125e+04, 3.57604570e+04,
          1.73345719e+05, 1.39644188e+05, 2.14198625e+05, 1.88183359e+05,
          1.59687906e+05, 1.44435344e+05, 2.27559141e+05, 2.20923766e+05 ]
      - [ 9.32312073e+02, 8.29839453e+03, 5.39770312e+03, 1.55441010e+02,
          7.85272034e+02, 2.62748901e+03, 4.10481964e+02, 2.09448547e+01,
          1.02526191e+04, 1.45636895e+04, 2.93338516e+04, 5.93970664e+04,
          3.76879922e+04, 2.62139668e+04, 2.80286875e+04, 1.71898301e+04,
          9.18145703e+03, 1.95502383e+04, 2.41040430e+04, 6.75997705e+03,
          1.28469551e+04, 3.79329609e+04, 2.35487559e+04, 9.79085645e+03,
          2.78856250e+05, 2.66043125e+05, 2.17680500e+05, 1.75405188e+05,
          2.37116250e+05, 2.37399312e+05, 2.31556062e+05, 1.92223469e+05 ]
      - [ 1.17322235e+02, 4.35644379e+01, 1.16499069e+02, 1.45594330e+02,
          2.93060822e+02, 3.55805817e+01, 3.82474548e+02, 3.50090271e+02,
          2.86549668e+04, 7.69491846e+03, 1.83843481e+03, 8.69604858e+02,
          1.37351611e+03, 6.42135059e+03, 9.95878516e+03, 1.04045752e+04,
          3.77331602e+04, 2.12537148e+04, 1.52012744e+04, 1.94235391e+04,
          2.14631914e+04, 1.14718203e+04, 1.75485957e+04, 2.47131211e+04,
          1.83847094e+05, 1.39917312e+05, 1.22547883e+05, 1.51253109e+05,
          2.05447219e+05, 1.29949375e+05, 1.58449344e+05, 1.78131922e+05 ]
      - [ 2.32306763e+03, 5.51981250e+03, 2.77561133e+03, 9.43585510e+02,
          1.97352649e+03, 1.88353242e+04, 5.45666406e+03, 3.28787964e+02,
          1.67708906e+04, 3.18849219e+04, 3.85925820e+04, 1.74325391e+04,
          1.72172871e+04, 2.49084688e+04, 3.52235742e+04, 1.07472666e+04,
          2.89905449e+04, 1.76829531e+04, 2.01239609e+04, 1.58017480e+04,
          2.52960352e+04, 2.64446660e+04, 3.75255234e+04, 2.24073809e+04,
          1.17447234e+05, 1.54629688e+05, 1.88439547e+05, 1.70831422e+05,
          1.24350578e+05, 1.65165016e+05, 1.77471453e+05, 1.70512969e+05 ]
      - [ 7.81174683e+02, 5.56664307e+02, 2.62804004e+03, 2.33430859e+03,
          1.12659753e+03, 3.67939545e+02, 4.52662415e+02, 6.61916992e+02,
          6.31905420e+03, 2.45240215e+04, 5.27648779e+03, 2.67176465e+03,
          1.53004895e+03, 5.66911743e+02, 1.08020239e+03, 1.33350464e+03,
          1.70545625e+04, 9.32952051e+03, 4.14204834e+03, 6.84973730e+03,
          3.82130054e+03, 1.18969299e+03, 5.62855225e+03, 1.67554551e+04,
          2.37540078e+04, 3.23786523e+04, 7.15985469e+04, 7.89729062e+04,
          2.05033828e+04, 1.10157109e+04, 1.41365752e+04, 2.07265156e+04 ]
      - [ 3.19835645e+03, 2.81431305e+02, 1.54656152e+03, 5.87970752e+03,
          3.00421045e+03, 9.18355286e+02, 1.70994763e+03, 2.77464697e+03,
          1.83533184e+04, 6.45670068e+03, 7.74785498e+03, 2.17884688e+04,
          1.99509746e+04, 8.54055859e+03, 9.67272266e+03, 1.20196650e+04,
          2.12448945e+04, 6.27111035e+03, 8.03495312e+03, 1.01765244e+04,
          1.63579170e+04, 9.51990723e+03, 9.31818066e+03, 1.37903574e+04,
          1.16840023e+05, 6.56057031e+04, 6.01953828e+04, 1.04052172e+05,
          9.17368594e+04, 7.41450938e+04, 5.82287070e+04, 1.05499172e+05 ]
      - [ 1.31521866e+02, 0., 0., 0., 0., 0., 0., 0., 9.36642969e+03,
          9.80052930e+03, 3.09812134e+03, 1.28034058e+03, 7.69267334e+02,
          4.64627295e+03, 8.09254688e+03, 9.34100977e+03, 2.67367737e+02,
          1.86023254e+01, 6.21627319e+02, 3.14227570e+02, 0., 0., 0.,
          5.09901953e+00, 7.53275547e+04, 9.84282031e+04, 1.01916570e+05,
          9.96189219e+04, 8.73218281e+04, 1.16213562e+05, 8.22504844e+04,
          1.02582617e+05 ]
      - [ 2.82607300e+03, 2.96032593e+03, 5.30576025e+03, 2.83077930e+03,
          8.63576855e+03, 3.81577979e+03, 6.03576953e+03, 3.50449854e+03,
          4.97247617e+04, 3.29845703e+04, 3.69475820e+04, 3.47311953e+04,
          4.93931289e+04, 3.05658301e+04, 4.18507031e+04, 3.85991445e+04,
          4.82557812e+04, 2.20472109e+04, 1.65352812e+04, 3.20448262e+04,
          4.60600273e+04, 2.17409473e+04, 2.33860703e+04, 3.08575840e+04,
          2.33908406e+05, 1.77943688e+05, 1.73732531e+05, 2.01473672e+05,
          2.00553109e+05, 1.85012219e+05, 1.72307266e+05, 2.23024219e+05 ]
      - [ 1.33327307e+03, 5.52106250e+03, 1.80154626e+03, 2.69570557e+02,
          2.05058365e+02, 4.04513763e+02, 1.44019763e+03, 8.41047974e+02,
          5.49203271e+03, 2.44064160e+04, 2.01326816e+04, 1.24475381e+04,
          1.33190244e+04, 8.19542578e+03, 3.96624336e+04, 5.80074219e+03,
          5.43975830e+03, 2.65707793e+04, 5.26416914e+04, 3.42337183e+03,
          4.04811865e+03, 2.67553271e+03, 1.13056970e+03, 1.20747791e+03,
          5.54858086e+04, 1.17614227e+05, 1.22407648e+05, 5.02782383e+04,
          7.05538516e+04, 1.81296516e+05, 1.30321664e+05, 4.17711250e+04 ]
      - [ 9.66346191e+03, 1.37956274e+03, 2.80839111e+03, 8.95069763e+02,
          1.85374805e+03, 2.65760986e+03, 5.39820557e+03, 7.43763574e+03,
          2.57977852e+04, 4.03206523e+04, 3.27047227e+04, 3.14449277e+04,
          4.89164570e+04, 3.84518281e+04, 3.53953125e+04, 4.48169844e+04,
          2.52621777e+04, 2.25418730e+04, 1.99849414e+04, 5.08116758e+04,
          3.25148086e+04, 2.79770645e+04, 3.77882852e+04, 6.90118945e+03,
          1.32349125e+05, 2.14218625e+05, 1.83945578e+05, 1.32755766e+05,
          1.23481633e+05, 1.69379062e+05, 1.23828977e+05, 1.28852977e+05 ]
      - [ 5.47557556e+02, 1.56703467e+03, 1.20892988e+04, 1.71302844e+03,
          1.22194348e+03, 2.34615918e+03, 8.34828711e+03, 5.10501190e+02,
          2.03545898e+03, 7.01015479e+03, 6.62979688e+04, 2.05555605e+04,
          2.57511523e+04, 2.08692148e+04, 5.95018945e+04, 2.95648071e+03,
          5.23617539e+04, 8.86133496e+03, 1.17190684e+04, 2.53648281e+04,
          4.06224414e+04, 4.79691133e+04, 2.85081133e+04, 2.82055684e+04,
          1.03815414e+05, 1.16406164e+05, 4.03547938e+05, 1.33713578e+05,
          8.64870156e+04, 1.26540094e+05, 3.72675438e+05, 1.69949484e+05 ]
      - [ 1.50268237e+03, 2.03455676e+03, 4.33007385e+02, 6.22717628e+01,
          7.08512573e+02, 1.45307483e+03, 5.96524277e+01, 3.92524338e+01,
          1.83957441e+04, 3.99014087e+03, 8.66454590e+03, 2.82837695e+04,
          4.17838906e+04, 2.93788633e+04, 2.09382266e+04, 1.84149336e+04,
          4.76433164e+04, 2.78685195e+04, 2.23015605e+04, 4.05584609e+04,
          4.84112227e+04, 4.95746797e+04, 2.58997031e+04, 1.22502324e+04,
          2.65962125e+05, 6.74731094e+04, 7.93294688e+04, 1.30829398e+05,
          2.01610047e+05, 1.28974992e+05, 1.28786484e+05, 2.20955172e+05 ]
      - [ 9.03133911e+02, 1.37106604e+03, 2.03067834e+03, 1.83012671e+03,
          1.14301526e+03, 1.86400131e+02, 5.54012878e+02, 1.01964227e+03,
          7.08424854e+03, 1.15548887e+04, 4.53746523e+04, 3.64208179e+03,
          8.05406885e+03, 3.57762148e+04, 2.83158848e+04, 6.73099316e+03,
          1.23793271e+04, 7.98137598e+03, 5.72297070e+03, 9.64593359e+03,
          1.60682549e+04, 7.20661426e+03, 7.94560742e+03, 1.01501885e+04,
          1.39101719e+05, 1.10529617e+05, 1.54530406e+05, 1.03350438e+05,
          1.56339266e+05, 1.13377156e+05, 1.26779688e+05, 9.53522734e+04 ]
      - [ 2.46619336e+03, 3.18173889e+02, 3.37703613e+02, 4.35466919e+02,
          6.38233398e+03, 2.21824112e+02, 4.76591949e+02, 3.68690887e+02,
          3.55054648e+04, 1.57204268e+04, 6.15111621e+03, 3.55569116e+03,
          3.52375352e+04, 1.65112598e+04, 5.01758496e+03, 1.98132434e+03,
          4.82263672e+04, 1.05621025e+04, 1.34661621e+04, 1.90214043e+04,
          5.33817578e+04, 8.85457129e+03, 1.87341426e+04, 1.69175391e+04,
          1.67693656e+05, 8.11269531e+04, 1.11554648e+05, 1.39711938e+05,
          1.49249703e+05, 4.62403242e+04, 5.89160312e+04, 1.40211391e+05 ]
      - [ 2.39907055e+01, 0., 1.68987640e+02, 1.24830086e+02,
          3.27284149e+02, 1.50742188e+03, 4.76274139e+02, 1.43539536e+02,
          4.43282812e+03, 9.31498242e+03, 5.86002832e+03, 3.09762183e+03,
          3.07389038e+03, 6.59578906e+03, 6.30735840e+03, 3.50122632e+03,
          3.70383154e+03, 1.54200488e+03, 2.78801611e+03, 1.99015417e+03,
          3.17881982e+03, 3.07711426e+03, 5.12283691e+03, 2.06093286e+03,
          5.03254336e+04, 3.69130234e+04, 4.73431523e+04, 5.25196641e+04,
          5.19632266e+04, 4.37454648e+04, 4.63250117e+04, 6.08834023e+04 ]
      - [ 0., 0., 0., 0., 0., 0., 0., 0., 1.94849180e+04, 4.07398730e+03,
          3.20752368e+03, 3.84697363e+03, 2.81887695e+03, 1.49347412e+03,
          2.59069189e+03, 2.86391562e+04, 5.92142639e+02, 1.07040283e+03,
          1.22679248e+03, 4.45505859e+02, 6.65166809e+02, 9.04082336e+01,
          1.64663010e+02, 5.39097839e+02, 8.76803516e+04, 1.06366594e+05,
          8.24155469e+04, 9.84189531e+04, 1.11407984e+05, 1.15700648e+05,
          6.86387188e+04, 8.71097969e+04 ]
      - [ 6.77139038e+02, 1.54434155e+03, 3.51162292e+02, 2.06578274e+01,
          5.72827339e+01, 1.33065784e+03, 1.16747253e+03, 8.35666656e+01,
          3.84831421e+03, 1.23210996e+04, 1.57953906e+04, 6.31712598e+03,
          5.86083301e+03, 1.18675977e+04, 8.01107764e+03, 3.52808643e+03,
          7.31620850e+03, 3.07258911e+03, 5.48638232e+03, 1.31126709e+04,
          1.40577324e+04, 4.65488916e+03, 1.26750781e+04, 9.32389844e+03,
          5.58866953e+04, 1.07759289e+05, 1.18900414e+05, 5.47235234e+04,
          5.45987383e+04, 5.78968086e+04, 5.59454609e+04, 6.48179141e+04 ]
      - [ 3.96768750e+03, 7.92397754e+03, 1.66813672e+04, 3.87183691e+03,
          4.08381250e+03, 1.36068623e+04, 1.94836680e+04, 1.81496021e+03,
          3.89064688e+04, 2.34527871e+04, 3.24691719e+04, 7.11683828e+04,
          9.05235625e+04, 1.37003984e+04, 2.83031797e+04, 4.22128203e+04,
          2.81190488e+04, 1.00132471e+04, 9.37328613e+03, 2.58575039e+04,
          5.49086484e+04, 3.13325898e+04, 4.10693242e+04, 6.37408164e+04,
          2.09696359e+05, 1.50901484e+05, 1.12301195e+05, 2.06742578e+05,
          2.58439984e+05, 1.30033383e+05, 1.32646969e+05, 1.83298203e+05 ]
      - [ 1.40327891e+04, 9.66310181e+02, 8.21882935e+02, 1.58280332e+04,
          1.28457725e+04, 1.90088953e+03, 1.62643359e+03, 7.73208594e+03,
          3.13708164e+04, 1.15123994e+04, 1.45296230e+04, 4.36225898e+04,
          3.73267695e+04, 6.24877002e+03, 1.06994121e+04, 3.67279922e+04,
          5.82454922e+04, 1.95964219e+04, 2.03343711e+04, 3.44633633e+04,
          5.22741562e+04, 1.57853936e+04, 1.21935322e+04, 2.95748691e+04,
          2.31264141e+05, 1.12655164e+05, 1.43101422e+05, 2.53994734e+05,
          3.01517594e+05, 1.21205656e+05, 1.35626172e+05, 2.50104906e+05 ]
      - [ 2.42815356e+03, 4.74007617e+03, 5.28329053e+03, 9.11152832e+02,
          1.84283704e+03, 2.84434009e+03, 2.31042358e+03, 2.36397974e+03,
          4.32636172e+04, 3.88757383e+04, 2.91306738e+04, 1.40992031e+04,
          1.52292627e+04, 3.61023320e+04, 4.95281680e+04, 3.26786191e+04,
          1.78393594e+04, 1.26298027e+04, 8.21040234e+04, 4.57304688e+03,
          1.27331465e+04, 1.74218965e+04, 3.52446445e+04, 1.44570303e+04,
          1.58007234e+05, 1.32051031e+05, 1.63958781e+05, 1.16103750e+05,
          1.72772312e+05, 1.76519156e+05, 2.17655641e+05, 1.30096266e+05 ]
      - [ 5.49184131e+03, 2.26488916e+03, 4.31407422e+03, 3.73667944e+03,
          7.47989355e+03, 5.40116162e+03, 4.12293701e+03, 5.67356494e+03,
          2.17451289e+04, 3.03661660e+04, 4.17046055e+04, 2.28414395e+04,
          2.34440645e+04, 2.47836855e+04, 3.33182617e+04, 3.04166016e+04,
          4.75134023e+04, 4.03145430e+04, 3.73099492e+04, 3.32441055e+04,
          4.94749023e+04, 3.24527598e+04, 2.88221543e+04, 2.71923066e+04,
          1.51942547e+05, 1.59707234e+05, 2.06668422e+05, 1.75244562e+05,
          2.26337531e+05, 2.11292719e+05, 1.93196328e+05, 1.51427547e+05 ]
      - [ 1.20672791e+03, 3.14829883e+03, 1.08678691e+04, 9.59343750e+03,
          8.88953711e+03, 3.57478076e+03, 8.86453711e+03, 3.51026001e+03,
          2.08260273e+04, 5.79652539e+03, 1.72396602e+04, 3.89490547e+04,
          2.42348867e+04, 7.15027051e+03, 1.80169395e+04, 8.29619062e+04,
          8.22347070e+03, 2.41291719e+04, 2.04719648e+04, 5.56263525e+03,
          9.82720703e+03, 9.57132715e+03, 1.15447324e+04, 8.26456738e+03,
          2.46112094e+05, 1.77138266e+05, 1.89550141e+05, 1.95604484e+05,
          2.38998109e+05, 1.63391734e+05, 2.08457312e+05, 1.80189953e+05 ]
      - [ 1.00307861e+04, 2.92365088e+03, 3.56540161e+03, 7.95001855e+03,
          9.62685547e+03, 6.05563965e+02, 6.34811719e+03, 4.85965088e+03,
          2.89118926e+04, 1.51960586e+04, 5.14788750e+04, 6.96837344e+04,
          3.07904844e+04, 1.57886064e+04, 3.71953828e+04, 6.01516094e+04,
          4.37237383e+04, 6.60379736e+03, 2.30383867e+04, 6.97173984e+04,
          5.08864609e+04, 9.91683496e+03, 2.53603887e+04, 5.32547109e+04,
          2.04431547e+05, 1.32439375e+05, 1.57172094e+05, 2.06599516e+05,
          1.85440703e+05, 1.18750211e+05, 1.47385078e+05, 1.86165062e+05 ]
      - [ 1.80434888e+03, 6.25353210e+02, 1.51937036e+03, 8.18694275e+02,
          1.23200952e+03, 9.43794250e+02, 1.83377600e+03, 1.97574622e+03,
          1.27801895e+04, 1.02865342e+04, 1.69905039e+04, 9.09816016e+03,
          1.30191924e+04, 8.36459961e+03, 1.44811826e+04, 9.64692578e+03,
          1.28340010e+04, 1.13983906e+04, 1.28830244e+04, 1.11305146e+04,
          1.42179424e+04, 8.81562988e+03, 8.88679785e+03, 1.00824590e+04,
          1.08430734e+05, 9.96501250e+04, 1.16179367e+05, 1.28540078e+05,
          9.88878047e+04, 9.58432344e+04, 1.33036953e+05, 1.02742344e+05 ]
      - [ 1.37443271e+04, 1.22313953e+03, 4.37977051e+03, 6.75647998e+03,
          1.58551357e+04, 5.19156787e+03, 4.43775439e+03, 1.16598320e+04,
          4.38565234e+04, 4.06608945e+04, 2.70648223e+04, 2.76541855e+04,
          2.86550352e+04, 1.93347168e+04, 3.78213203e+04, 3.10426973e+04,
          3.22265566e+04, 2.21168633e+04, 1.73070137e+04, 2.75612930e+04,
          4.72444141e+04, 1.96028184e+04, 1.71827051e+04, 2.03960527e+04,
          1.77195266e+05, 1.65276453e+05, 1.14854406e+05, 1.89038531e+05,
          2.19693203e+05, 1.78336766e+05, 1.22441828e+05, 1.68157391e+05 ]
      - [ 1.21633911e+03, 1.32973950e+03, 7.57230811e+03, 2.29992261e+03,
          2.03867151e+03, 2.15457471e+03, 2.12039673e+03, 1.22804359e+02,
          7.56636816e+03, 5.25103711e+03, 1.76348418e+04, 9.79362500e+03,
          5.85677344e+03, 1.01984043e+04, 2.30308027e+04, 1.25282344e+04,
          5.14703955e+03, 1.00778455e+03, 1.05660815e+03, 8.63927246e+03,
          1.20853418e+04, 2.85161401e+03, 8.19998535e+03, 2.19272012e+04,
          3.66360820e+04, 2.25120742e+04, 6.59694922e+04, 1.53332453e+05,
          6.31292344e+04, 4.55455469e+04, 9.78764531e+04, 1.44459156e+05 ]
      - [ 7.41976624e+02, 4.34518848e+03, 5.79778516e+03, 2.09347949e+03,
          1.80287659e+03, 3.22768701e+03, 3.67024023e+03, 1.92766760e+03,
          2.63291133e+04, 1.13219756e+04, 2.26511094e+04, 1.19740977e+04,
          3.14600254e+04, 2.95763555e+04, 1.93522695e+04, 1.65423203e+04,
          1.59776943e+04, 9.32373926e+03, 6.12657129e+03, 6.96966406e+03,
          2.03292031e+04, 1.54718418e+04, 1.09485107e+04, 9.41979492e+03,
          1.47303719e+05, 8.63732969e+04, 1.13478930e+05, 7.19421719e+04,
          1.48422656e+05, 1.87886203e+05, 1.04583641e+05, 8.77465000e+04 ]
      - [ 9.75179596e+01, 7.12613708e+02, 8.61591309e+02, 6.37664893e+03,
          2.80617236e+03, 3.89947925e+03, 1.91062441e+04, 5.80099602e+01,
          5.33352773e+04, 2.37903359e+04, 4.55373125e+04, 1.08471266e+05,
          6.95124609e+04, 3.07736504e+04, 2.90224180e+04, 2.29029336e+04,
          9.13405957e+03, 3.33732153e+03, 8.58889844e+03, 2.46339795e+03,
          3.07261792e+03, 7.74412656e+04, 6.50004766e+04, 5.74019775e+03,
          1.56858875e+05, 2.24217641e+05, 2.71222438e+05, 1.04685109e+05,
          1.03092875e+05, 1.75059453e+05, 1.80681969e+05, 2.00244984e+05 ]
      - [ 5.78222998e+03, 3.48884839e+03, 4.73674512e+03, 3.01112329e+03,
          5.10570068e+03, 4.74796680e+03, 3.56467139e+03, 5.50703662e+03,
          2.34643516e+04, 1.66164766e+04, 2.76058262e+04, 2.24433496e+04,
          3.54328438e+04, 2.15012539e+04, 3.25960566e+04, 1.85121836e+04,
          1.60759609e+04, 4.99999805e+03, 1.05245322e+04, 2.03520957e+04,
          2.73014531e+04, 1.35689229e+04, 1.83382422e+04, 4.76932070e+04,
          1.51673125e+05, 1.00208641e+05, 9.63824922e+04, 1.30219820e+05,
          168141., 1.57626391e+05, 1.36962422e+05, 1.90927031e+05 ]
      - [ 7.32665430e+03, 2.72889496e+02, 1.25379248e+03, 3.47908130e+03,
          9.93334961e+03, 3.38094653e+03, 4.95325781e+03, 6.96170605e+03,
          2.11445762e+04, 2.05615605e+04, 1.27113291e+04, 1.11516006e+04,
          2.38843828e+04, 2.12852754e+04, 1.74497305e+04, 8.58163281e+03,
          2.10636816e+04, 1.96090352e+04, 1.00373789e+04, 1.58931055e+04,
          2.33901816e+04, 1.72673828e+04, 1.22893047e+04, 1.67054551e+04,
          9.78277812e+04, 1.18240156e+05, 1.01615430e+05, 7.28016172e+04,
          1.11660969e+05, 1.19307703e+05, 1.45975469e+05, 1.08476672e+05 ]
      - [ 2.37514648e+03, 7.90423950e+02, 9.43894727e+03, 1.15835625e+04,
          5.55018213e+03, 3.14488232e+03, 5.03453760e+03, 7.94250977e+02,
          1.73865605e+04, 1.57702559e+04, 3.14218789e+04, 3.46775820e+04,
          1.37124590e+04, 1.17683174e+04, 4.56706484e+04, 3.75685039e+04,
          2.73282363e+04, 2.21135078e+04, 3.73863242e+04, 3.17527949e+04,
          1.73221055e+04, 1.20758848e+04, 3.69345586e+04, 2.28505059e+04,
          9.54338672e+04, 1.08213297e+05, 2.32876312e+05, 2.17760281e+05,
          1.24443656e+05, 1.10199984e+05, 1.92569609e+05, 1.70728656e+05 ]
      - [ 2.99379443e+03, 9.10609589e+01, 4.61076953e+03, 1.49642261e+03,
          4.81270459e+03, 1.00886113e+04, 1.45187080e+04, 4.90965186e+03,
          5.27762305e+04, 6.26709131e+03, 2.64762148e+04, 7.84179453e+04,
          6.48999688e+04, 8.36637891e+03, 1.60554668e+04, 3.81502266e+04,
          3.31369570e+04, 1.54506650e+04, 2.27246348e+04, 2.71779141e+04,
          4.88345859e+04, 1.91752695e+04, 2.46181191e+04, 2.69440469e+04,
          2.12619312e+05, 1.36914281e+05, 2.05060078e+05, 2.43017109e+05,
          1.64222109e+05, 1.51655562e+05, 1.78001969e+05, 2.43357266e+05 ]
      - [ 8.43421777e+03, 4.80101221e+03, 1.27969932e+04, 5.68524414e+03,
          4.63959229e+03, 1.09007930e+04, 1.78158613e+04, 2.32885039e+04,
          4.55597930e+04, 5.16245820e+04, 5.10066172e+04, 4.01463281e+04,
          4.98842148e+04, 5.28779023e+04, 4.85121133e+04, 3.11398066e+04,
          7.30866562e+04, 4.41540469e+04, 5.22083555e+04, 5.78952500e+04,
          1.00234562e+05, 3.86443516e+04, 5.52068789e+04, 5.79064961e+04,
          2.54908422e+05, 3.19522625e+05, 2.68443094e+05, 2.45107344e+05,
          255146., 2.97260812e+05, 3.43189750e+05, 2.61040203e+05 ]
      - [ 2.40207129e+03, 1.36577405e+03, 1.30544800e+03, 3.55441650e+02,
          1.17262680e+02, 1.95517548e+02, 4.17685059e+02, 5.11510162e+02,
          4.75972695e+04, 9.52438477e+03, 5.77926318e+03, 4.74117041e+03,
          1.31885352e+04, 8.19293066e+03, 6.31354443e+03, 1.31554043e+04,
          1.90973457e+04, 3.34909961e+04, 6.21545234e+04, 8.62304980e+03,
          8.76864551e+03, 8.34297949e+03, 1.49584414e+04, 1.02577764e+04,
          1.07611297e+05, 1.36839219e+05, 1.45618719e+05, 1.02439039e+05,
          1.35240641e+05, 1.55845906e+05, 1.86880766e+05, 1.09078867e+05 ]
      - [ 9.33627136e+02, 2.35714966e+03, 1.90532190e+03, 1.86129700e+03,
          2.24567480e+03, 6.21792725e+02, 9.18530151e+02, 7.21086792e+02,
          5.84357324e+03, 1.43729277e+04, 1.12908486e+04, 4.25215234e+03,
          2.70699824e+04, 2.27798574e+04, 3.27904531e+04, 9.15360449e+03,
          1.10840996e+04, 1.27458213e+04, 1.96676016e+04, 1.30784395e+04,
          1.55473799e+04, 3.64380781e+04, 4.28111719e+04, 1.57012217e+04,
          8.65737969e+04, 1.08508461e+05, 1.72683203e+05, 1.15745422e+05,
          1.10638547e+05, 1.98786875e+05, 2.71326406e+05, 1.32236422e+05 ]
      - [ 1.05453625e+03, 8.83846985e+02, 4.44125391e+03, 1.73134253e+03,
          1.11352754e+04, 8.44411914e+03, 4.33740625e+03, 7.30377014e+02,
          3.26339087e+03, 2.95261108e+03, 5.16186963e+03, 6.91993750e+03,
          2.01980430e+04, 9.92830566e+03, 1.00267246e+04, 5.20755566e+03,
          1.88097109e+04, 1.22737178e+04, 1.23996230e+04, 1.34831436e+04,
          3.62158945e+04, 6.61864551e+03, 9.19119629e+03, 2.38973398e+04,
          9.64218750e+04, 4.73445938e+04, 3.79399609e+04, 1.02122516e+05,
          8.84308984e+04, 1.05273266e+05, 7.56049141e+04, 1.05739070e+05 ]
      - [ 3.00727197e+03, 1.75996602e+04, 3.24711353e+03, 3.85546509e+02,
          3.52828516e+03, 1.20063398e+04, 2.49621729e+03, 8.17924805e+02,
          2.18258145e+04, 8.82060391e+04, 3.80039727e+04, 1.11589678e+04,
          2.39849023e+04, 8.15113594e+04, 4.88929102e+04, 7.62654053e+03,
          2.49438145e+04, 7.65525078e+04, 1.60966826e+04, 8.65646680e+03,
          2.71276406e+04, 6.60552188e+04, 9.93145312e+03, 5.97488672e+03,
          1.66786453e+05, 3.30567906e+05, 1.54875391e+05, 7.76295312e+04,
          1.49286594e+05, 3.55173656e+05, 1.55494203e+05, 1.04482641e+05 ]
      - [ 1.44909189e+04, 1.38073936e+04, 7.05779053e+03, 3.31942474e+02,
          7.12125671e+02, 1.14744775e+03, 1.48131758e+04, 5.12243994e+03,
          3.70946250e+04, 5.06463125e+04, 5.64770078e+04, 2.41581660e+04,
          3.57524570e+04, 4.89849336e+04, 6.55421875e+04, 6.69058125e+04,
          5.11409180e+04, 4.49692539e+04, 4.78967461e+04, 3.84293086e+04,
          4.48337734e+04, 3.76512773e+04, 3.98151836e+04, 2.87620938e+04,
          2.48521375e+05, 2.79641031e+05, 2.84372938e+05, 2.34748922e+05,
          2.49144531e+05, 2.92372344e+05, 3.14640625e+05, 2.22811375e+05 ]
      - [ 9.35135620e+02, 9.33112106e+01, 7.81698761e+01, 2.66936493e+01,
          1.77343857e+02, 1.60124557e+02, 4.01760468e+02, 7.61706421e+02,
          4.46208359e+04, 3.12907676e+04, 1.75727363e+04, 1.04745918e+04,
          1.38335498e+04, 1.09544443e+04, 1.76725605e+04, 2.70139570e+04,
          3.70942305e+04, 4.55150703e+04, 4.46703203e+04, 1.17504922e+04,
          5.49419336e+03, 1.63538525e+03, 6.05718848e+03, 9.89673145e+03,
          2.19692562e+05, 1.93597797e+05, 1.46926469e+05, 1.48312828e+05,
          1.93572406e+05, 1.69677422e+05, 1.76401891e+05, 2.15005109e+05 ]
      - [ 7.56832764e+02, 3.34803802e+02, 1.17899133e+03, 1.60321326e+03,
          6.97459229e+02, 4.88732452e+02, 1.70840491e+03, 9.57098572e+02,
          2.90129531e+04, 3.67626094e+04, 3.26635645e+04, 3.08477246e+04,
          2.39359766e+04, 1.49793330e+04, 3.34823984e+04, 2.19822891e+04,
          1.77070938e+04, 6.37448975e+03, 1.67347402e+04, 3.89578477e+04,
          2.04390879e+04, 1.18974863e+04, 3.45991875e+04, 2.45045898e+04,
          1.65069469e+05, 1.65323031e+05, 2.00451609e+05, 2.30124094e+05,
          1.92593203e+05, 1.47069344e+05, 2.01320984e+05, 2.09495453e+05 ]
      - [ 1.30082148e+04, 7.45621436e+03, 7.64441162e+03, 2.04529749e+03,
          3.36461255e+03, 3.35169702e+03, 6.52401221e+03, 7.56986377e+03,
          4.00560195e+04, 3.04837441e+04, 3.39349727e+04, 3.83866406e+04,
          6.37474336e+04, 2.59688242e+04, 3.73109062e+04, 3.84102266e+04,
          6.50985039e+04, 1.44289756e+04, 2.46185664e+04, 5.77116406e+04,
          4.87326367e+04, 1.20284316e+04, 2.26532051e+04, 4.99960977e+04,
          2.46692016e+05, 1.87989469e+05, 1.75115547e+05, 2.57146953e+05,
          1.94063609e+05, 2.14299812e+05, 2.42555469e+05, 2.12561531e+05 ]
      - [ 6.48239404e+03, 8.28324414e+03, 4.86939697e+03, 6.05656934e+03,
          3.49211060e+03, 1.18583428e+04, 1.26386895e+04, 2.38333667e+03,
          7.29090391e+04, 4.62345352e+04, 5.91729648e+04, 3.66226758e+04,
          5.11596680e+04, 3.12799180e+04, 6.38831133e+04, 5.22031133e+04,
          6.84230547e+04, 2.72926621e+04, 5.70143203e+04, 2.54075781e+04,
          5.62364414e+04, 4.11303516e+04, 3.99300547e+04, 3.74493750e+04,
          2.05753094e+05, 2.56076859e+05, 3.52050625e+05, 2.36943281e+05,
          2.28082828e+05, 2.22129516e+05, 3.16891406e+05, 2.57014609e+05 ]
      - [ 1.64684558e+03, 5.01794189e+03, 9.87991699e+03, 3.75938306e+03,
          4.19841504e+03, 1.88377852e+04, 2.44096035e+04, 4.74290332e+03,
          4.72700977e+04, 3.18712754e+04, 3.18462539e+04, 3.14324023e+04,
          2.55972266e+04, 1.99748398e+04, 3.41713086e+04, 3.10214902e+04,
          2.61833301e+04, 6.02554883e+04, 5.53612422e+04, 1.60065469e+04,
          2.99266934e+04, 6.80597500e+04, 9.56774375e+04, 2.64151035e+04,
          2.30055281e+05, 2.34317562e+05, 2.16589672e+05, 2.08131828e+05,
          2.16919500e+05, 2.24914047e+05, 2.34533250e+05, 1.83487859e+05 ]
      - [ 2.99194141e+03, 2.19114258e+03, 1.74977197e+03, 3.43472998e+03,
          3.14480713e+03, 1.79346777e+03, 1.86463660e+03, 2.47281079e+03,
          3.09017012e+04, 3.52590586e+04, 3.55208945e+04, 2.68607051e+04,
          2.48361719e+04, 1.22893555e+04, 2.41356074e+04, 3.30259531e+04,
          2.66532207e+04, 1.87668184e+04, 1.37046182e+04, 1.50419473e+04,
          3.26152852e+04, 3.32709961e+04, 3.19845547e+04, 2.70162871e+04,
          2.30691562e+05, 1.71769609e+05, 1.92617078e+05, 1.81385781e+05,
          1.49632688e+05, 1.16904250e+05, 1.14203961e+05, 1.04755891e+05 ]
      - [ 5.03177460e+02, 1.27623428e+02, 2.17343872e+03, 7.34644043e+03,
          4.37735352e+03, 2.18268478e+02, 1.07341162e+03, 2.28367798e+03,
          2.29696484e+04, 2.82380977e+04, 1.15436826e+04, 5.14092041e+03,
          7.80098828e+03, 4.01094580e+03, 9.01937891e+03, 1.31172852e+04,
          1.61559521e+04, 3.06438110e+03, 1.08247471e+04, 2.82047324e+04,
          8.35319141e+03, 2.46301270e+03, 5.78432080e+03, 2.50782070e+04,
          7.13516875e+04, 2.24244156e+05, 7.29562266e+04, 1.11407531e+05,
          8.47282812e+04, 9.23768984e+04, 6.70843828e+04, 1.07149562e+05 ]
      - [ 5.15699170e+03, 2.10877710e+03, 1.26661260e+04, 4.63240479e+03,
          1.65744873e+03, 6.37931104e+03, 1.14225498e+04, 3.23333325e+03,
          3.28030508e+04, 2.10709590e+04, 3.56923711e+04, 2.62183594e+04,
          3.33260664e+04, 3.42231289e+04, 4.10621016e+04, 2.99432539e+04,
          2.47393750e+04, 2.60907480e+04, 1.56575586e+04, 2.36200625e+04,
          3.93267773e+04, 1.70932051e+04, 3.16232676e+04, 2.19806680e+04,
          1.95477531e+05, 1.77252297e+05, 1.82530594e+05, 1.79777219e+05,
          2.00969297e+05, 2.47275500e+05, 2.15530531e+05, 2.07105188e+05 ]
      - [ 1.41042603e+02, 0., 4.33844025e+02, 3.23874939e+02, 4.,
          4.52588234e+01, 1.33625809e+02, 1.46437302e+02, 1.12595154e+03,
          2.37601440e+02, 1.57176465e+03, 1.15387842e+03, 2.58092834e+02,
          2.57858337e+02, 1.70440088e+03, 2.62678833e+03, 0., 0., 0., 0.,
          0., 0., 0., 0., 1.39324094e+05, 8.43592500e+04, 9.22349688e+04,
          9.08281250e+04, 1.69969156e+05, 9.71937109e+04, 6.36573555e+04,
          1.31055945e+05 ]
      - [ 56., 0., 0., 0., 5.09094385e+03, 9.69753418e+03,
          2.48866016e+03, 0., 6.25738477e+03, 3.62542358e+03,
          8.06310693e+03, 4.77927539e+04, 2.78175859e+04, 3.32740649e+03,
          4.18460107e+03, 1.41229209e+04, 5.41580176e+03, 6.02034546e+02,
          1.10319238e+03, 1.60510681e+03, 3.24195723e+04, 2.33880723e+04,
          3.50057349e+03, 9.89176172e+03, 9.73665000e+04, 1.60301516e+05,
          2.48769500e+05, 1.27202023e+05, 6.99882734e+04, 8.00024297e+04,
          1.55082578e+05, 1.09643055e+05 ]
      - [ 4.59853857e+03, 7.94896606e+02, 8.22900391e+01, 0.,
          4.27279205e+01, 0., 24., 9.68270035e+01, 2.77088555e+04,
          1.09939343e+03, 1.80780078e+03, 3.15416235e+03, 2.73311548e+03,
          2.97347266e+03, 2.32162842e+03, 2.81841426e+04, 2.20653730e+04,
          1.93788105e+04, 1.80116660e+04, 2.73725488e+04, 9.03598242e+03,
          1.21216248e+03, 1.22913049e+03, 8.55022461e+03, 1.21012266e+05,
          4.82975117e+04, 8.39051172e+04, 1.93528250e+05, 1.33445688e+05,
          8.99701953e+04, 1.22824828e+05, 1.73933750e+05 ]
      - [ 2.43701074e+03, 1.70121191e+03, 4.36974922e+04, 1.32831665e+03,
          5.94545227e+02, 4.07155322e+03, 2.66085703e+04, 7.74613647e+02,
          1.06469268e+04, 6.17173516e+04, 1.94157141e+05, 1.20773330e+04,
          1.42105176e+04, 7.23929766e+04, 1.79511297e+05, 1.41741406e+04,
          1.42914717e+04, 3.32236680e+04, 1.35462734e+05, 2.84180688e+03,
          1.28495547e+04, 5.59312461e+04, 1.28940375e+05, 1.06030137e+04,
          8.16293906e+04, 3.84656312e+05, 8.15900062e+05, 8.02934062e+04,
          9.46592891e+04, 3.69564188e+05, 8.73497500e+05, 9.01201797e+04 ]
      - [ 0., 0., 0., 0., 0., 0., 0., 0., 0., 0., 0., 0., 0., 0., 0., 0.,
          7.01168579e+02, 5.76597266e+03, 4.20209766e+03, 1.15707275e+03,
          2.43700781e+03, 2.15625952e+03, 6.30268506e+03, 3.08402344e+02,
          7.52325244e+03, 1.61846318e+04, 2.05393086e+04, 7.14017090e+03,
          7.31394971e+03, 1.80993574e+04, 1.75160156e+04, 8.94193848e+03 ]
      - [ 3.17847876e+03, 1.58274307e+04, 1.75411777e+04, 6.18019897e+02,
          2.94888037e+03, 1.52095820e+04, 1.05391367e+04, 2.88582129e+03,
          1.52481729e+04, 1.61012998e+04, 2.44541738e+04, 1.62765791e+04,
          1.22018027e+04, 1.85124551e+04, 3.35625078e+04, 1.53757148e+04,
          4.50565195e+04, 6.58979375e+04, 7.86814609e+04, 2.40663320e+04,
          3.14750215e+04, 3.07765254e+04, 2.51312500e+04, 2.10599414e+04,
          1.13266391e+05, 1.16035984e+05, 1.00276312e+05, 1.00814023e+05,
          1.19756172e+05, 1.45318031e+05, 1.38383391e+05, 1.00029008e+05 ]
      - [ 4.33801465e+03, 1.20971826e+04, 1.52729326e+04, 1.66765137e+03,
          1.34941077e+03, 9.99603088e+02, 2.51287109e+03, 2.25194116e+03,
          2.28139492e+04, 2.71950352e+04, 3.98625586e+04, 2.88563457e+04,
          2.07928555e+04, 3.33379492e+04, 3.95851133e+04, 2.19894395e+04,
          2.59659844e+04, 4.87124766e+04, 8.65516484e+04, 2.15380859e+04,
          2.42638184e+04, 1.84747598e+04, 1.99284355e+04, 2.18145293e+04,
          2.03222203e+05, 1.75453281e+05, 1.80493328e+05, 1.83741625e+05,
          1.97218016e+05, 2.01057188e+05, 1.93750750e+05, 1.97646562e+05 ]
      - [ 1.21026709e+04, 9.30900488e+03, 1.54098848e+04, 1.26008662e+04,
          1.30437139e+04, 8.25833887e+03, 7.76151270e+03, 1.12968203e+04,
          5.13635625e+04, 3.36135742e+04, 5.88866602e+04, 6.10963906e+04,
          4.32981289e+04, 4.40019727e+04, 5.89795547e+04, 3.51805234e+04,
          6.44394688e+04, 5.37627734e+04, 6.52386602e+04, 3.52340234e+04,
          7.12394219e+04, 6.93475469e+04, 6.53781680e+04, 4.17859766e+04,
          2.52893625e+05, 2.85080656e+05, 2.89757656e+05, 3.12340688e+05,
          2.81662031e+05, 2.72503781e+05, 3.29558969e+05, 2.59082188e+05 ]
      - [ 9.14318298e+02, 1.08298083e+03, 4.67004913e+02, 1.98336670e+02,
          1.28500989e+03, 4.70347119e+03, 5.74675439e+03, 1.48341589e+03,
          3.62346411e+03, 3.62785000e+04, 3.53978867e+04, 3.43848315e+03,
          4.28343945e+03, 3.58582188e+04, 2.19256035e+04, 2.48979126e+03,
          7.54110400e+03, 8.90823242e+03, 1.23885361e+04, 5.65012012e+03,
          8.76514844e+03, 8.56266211e+03, 8.25271875e+03, 4.15283838e+03,
          7.71913594e+04, 1.42328547e+05, 1.72638641e+05, 9.92296641e+04,
          9.68259531e+04, 1.49236875e+05, 1.68447797e+05, 9.77802188e+04 ]
      - [ 3.86929297e+03, 1.23205338e+02, 2.72291687e+02, 1.22925644e+02,
          8.01577835e+01, 1.51485458e+02, 6.63316406e+02, 3.08660767e+03,
          2.03410742e+04, 4.27949297e+04, 3.96319414e+04, 9.87111426e+03,
          1.34349531e+04, 2.52688711e+04, 4.89471016e+04, 2.43782344e+04,
          1.36356152e+04, 1.36114102e+04, 1.55596807e+04, 1.30131787e+04,
          1.40432471e+04, 8.87586426e+03, 8.01392188e+03, 6.69643506e+03,
          2.15706578e+05, 2.54772938e+05, 3.21923406e+05, 1.88968625e+05,
          2.17545500e+05, 2.35753250e+05, 3.38702312e+05, 1.70805422e+05 ]
      - [ 6.28621094e+03, 1.42271982e+04, 1.77297461e+04, 9.45337500e+03,
          1.09567051e+04, 9.03536133e+03, 4.09367554e+03, 3.06206445e+03,
          7.13339688e+04, 4.77109844e+04, 4.24398984e+04, 3.58719375e+04,
          6.02740781e+04, 4.58646797e+04, 5.12086758e+04, 4.24520898e+04,
          7.21052734e+04, 4.24020391e+04, 5.16250547e+04, 2.99480273e+04,
          7.19368281e+04, 4.34703477e+04, 2.83543730e+04, 5.19546055e+04,
          317696., 2.17328812e+05, 2.27429766e+05, 2.44794781e+05,
          3.77723469e+05, 2.10233062e+05, 2.03757188e+05, 2.96559719e+05 ]
      - [ 4.48342236e+03, 1.83899524e+03, 4.07782495e+03, 1.93629932e+03,
          3.37134131e+03, 1.34730615e+03, 2.39608643e+03, 4.51954053e+03,
          1.73886328e+04, 1.07500234e+04, 1.61248574e+04, 1.67307402e+04,
          1.96652422e+04, 1.38310889e+04, 1.55035234e+04, 1.54280225e+04,
          4.07993242e+04, 1.28671504e+04, 1.49437236e+04, 1.86948691e+04,
          3.48787734e+04, 1.56770244e+04, 1.32806914e+04, 1.78462949e+04,
          1.72863297e+05, 1.01975055e+05, 8.59314062e+04, 8.39098203e+04,
          1.23042656e+05, 9.54886875e+04, 7.28041641e+04, 1.06475453e+05 ]
      - [ 266., 9.48683357e+00, 4.88772850e+01, 1.82178513e+02,
          3.55405609e+02, 3.95399463e+03, 4.35539990e+03, 4.57506409e+01,
          1.75806680e+04, 4.02852500e+04, 1.54257910e+04, 1.06300977e+04,
          1.92737480e+04, 1.71726445e+04, 1.27442441e+04, 2.49347705e+03,
          2.16459473e+03, 5.61391724e+02, 9.10786560e+02, 6.39781738e+02,
          4.22095312e+03, 1.41207646e+04, 1.03719229e+04, 3.38216748e+03,
          6.75308750e+04, 2.60902938e+05, 1.47229781e+05, 4.55742734e+04,
          6.50276719e+04, 2.32274297e+05, 1.00625664e+05, 5.31658203e+04 ]
      - [ 2.90638184e+03, 3.53142090e+03, 1.40251406e+04, 7.31109033e+03,
          1.54914771e+03, 1.95582117e+03, 7.11595020e+03, 2.41528125e+03,
          1.91706992e+04, 1.42620938e+04, 2.46045781e+04, 2.55412070e+04,
          2.59009844e+04, 2.93789082e+04, 2.85882402e+04, 2.18679316e+04,
          1.32965342e+04, 9.36085312e+04, 2.28831250e+04, 1.80686230e+04,
          1.53939258e+04, 3.09968457e+04, 3.44526445e+04, 1.29653916e+04,
          1.43848656e+05, 1.70574547e+05, 1.28482078e+05, 1.44125516e+05,
          1.76030672e+05, 1.90078531e+05, 1.91192500e+05, 1.09935812e+05 ]
      - [ 5.66464941e+03, 0., 0., 1.10194883e+04, 1.87816230e+04,
          6.74048691e+01, 1.84530823e+02, 9.96919336e+03, 2.07762070e+04,
          1.97585156e+04, 2.38530840e+04, 2.72896191e+04, 3.57983711e+04,
          2.90043711e+04, 3.35133477e+04, 1.94106504e+04, 2.40529336e+04,
          3.06850635e+03, 1.43522012e+04, 3.02304023e+04, 3.03351367e+04,
          1.72765586e+04, 4.15960156e+04, 4.62029219e+04, 1.44786516e+05,
          1.13004789e+05, 1.22927031e+05, 1.50306203e+05, 1.80439734e+05,
          1.54065828e+05, 1.49247328e+05, 1.83337781e+05 ]
      - [ 3.34558449e+01, 3.86585388e+01, 9.88916016e+01, 1.02400078e+02,
          2.33587631e+02, 9.50061264e+01, 9.67097244e+01, 1.13137083e+01,
          3.17643750e+04, 5.32739648e+04, 6.47219336e+04, 2.20029258e+04,
          2.32060938e+04, 3.26282188e+04, 5.04793008e+04, 2.15211484e+04,
          3.45682007e+03, 4.10584619e+03, 5.93887207e+03, 2.57659131e+03,
          1.05957446e+03, 3.99793549e+02, 7.55389221e+02, 4.91494720e+02,
          1.69169703e+05, 2.43234109e+05, 2.62869719e+05, 1.98997547e+05,
          1.91262078e+05, 2.39885672e+05, 2.47880312e+05, 1.28126867e+05 ]
      - [ 3.77820953e+02, 1.07017871e+03, 1.47197156e+03, 2.81227814e+02,
          1.03282845e+02, 1.78143692e+02, 1.57317703e+02, 2.22598892e+02,
          5.56365186e+03, 3.70507373e+03, 9.60033105e+03, 6.85255811e+03,
          7.89258984e+03, 4.59235840e+03, 6.44752881e+03, 5.55722656e+03,
          1.74231616e+03, 3.23196558e+03, 1.11319912e+04, 7.53622217e+03,
          2.64556396e+03, 5.55627686e+02, 6.94822205e+02, 5.62838562e+02,
          1.44590375e+05, 6.84450234e+04, 6.93113203e+04, 1.22120281e+05,
          1.07704742e+05, 8.31342344e+04, 7.37685391e+04, 9.74592734e+04 ]
      - [ 5.47263818e+03, 5.07253076e+03, 3.21619873e+03, 2.02877014e+03,
          4.55803076e+03, 4.55886328e+03, 3.38792407e+03, 1.64917773e+03,
          2.18950742e+04, 1.99716133e+04, 2.25178262e+04, 3.48850898e+04,
          4.10000195e+04, 1.58936152e+04, 1.93847852e+04, 1.90891875e+04,
          2.96314512e+04, 3.48942734e+04, 2.84630645e+04, 2.31222520e+04,
          2.54426348e+04, 1.32614180e+04, 1.63125449e+04, 2.01404980e+04,
          2.22415188e+05, 209896., 1.13247227e+05, 1.44347062e+05,
          1.87341375e+05, 1.75586797e+05, 1.30381453e+05, 1.43476875e+05 ]
      - [ 4.66890350e+02, 1.92051294e+03, 1.43936523e+04, 4.02713354e+03,
          3.18758179e+02, 3.69631805e+02, 1.88569397e+03, 6.15492859e+02,
          2.93970190e+03, 1.96044519e+03, 6.58137109e+03, 3.25128223e+03,
          4.19914551e+03, 5.94058887e+03, 1.79944316e+04, 1.03439863e+04,
          1.05944031e+03, 2.59947449e+02, 3.09218536e+02, 1.91194543e+03,
          7.96965186e+03, 3.01737640e+02, 3.08349182e+02, 4.94688263e+02,
          1.26793844e+05, 7.31759141e+04, 1.10658094e+05, 1.45733359e+05,
          1.71235375e+05, 1.14865492e+05, 1.00367445e+05, 1.46734766e+05 ]
      - [ 9.33091980e+02, 5.69619324e+02, 8.23821838e+02, 5.54259094e+02,
          5.40207886e+02, 2.78298981e+02, 6.45958740e+02, 2.74813446e+02,
          9.55086035e+03, 7.92419482e+03, 1.04359160e+04, 1.04560283e+04,
          1.44054951e+04, 9.05908203e+03, 1.28716914e+04, 8.20133105e+03,
          5.61164453e+03, 2.69485889e+03, 2.61581763e+03, 5.61738574e+03,
          9.42075293e+03, 6.09778125e+03, 3.66828369e+03, 3.51843677e+03,
          9.16100703e+04, 7.69213906e+04, 8.88001953e+04, 9.91173203e+04,
          1.20416328e+05, 9.64981562e+04, 7.59083672e+04, 1.21120906e+05 ]
      - [ 1.30156758e+04, 5.82563135e+03, 4.50072070e+03, 3.50556421e+03,
          5.78429199e+03, 3.33213696e+03, 5.07387207e+03, 4.99055420e+03,
          3.13048398e+04, 1.83006387e+04, 1.78492207e+04, 1.40858770e+04,
          1.79910684e+04, 2.03159707e+04, 3.06599023e+04, 3.62988008e+04,
          4.06228789e+04, 2.79916230e+04, 3.37248867e+04, 4.16927773e+04,
          4.17024141e+04, 1.86432676e+04, 2.08082402e+04, 2.26939043e+04,
          1.58603188e+05, 1.30736523e+05, 1.25597570e+05, 1.64847141e+05,
          1.99167344e+05, 1.61008953e+05, 1.51901672e+05, 153880. ]
      - [ 1.09461597e+03, 7.49726379e+02, 9.98413940e+02, 1.49570203e+03,
          2.71718018e+03, 1.13556836e+03, 2.19238599e+03, 1.73359412e+03,
          1.89303145e+04, 1.19171846e+04, 1.01358818e+04, 1.54320137e+04,
          1.69223926e+04, 6.42267969e+03, 7.41788672e+03, 1.58333486e+04,
          2.82895820e+04, 9.86994727e+03, 1.42006934e+04, 3.02537910e+04,
          3.54138047e+04, 9.84180273e+03, 1.33331816e+04, 4.00426133e+04,
          1.60438141e+05, 6.37339453e+04, 6.08689492e+04, 1.73557656e+05,
          1.63974297e+05, 7.71940703e+04, 7.00143203e+04, 1.62445141e+05 ]
      - [ 0., 0., 0., 0., 0., 0., 0., 0., 0., 0., 0., 0., 0., 0., 0., 0.,
          7.01168640e+02, 5.76597266e+03, 4.20209766e+03, 1.15707275e+03,
          2.43700781e+03, 2.15625952e+03, 6.30268506e+03, 3.08402313e+02,
          7.52325244e+03, 1.61846318e+04, 2.05393086e+04, 7.14017090e+03,
          7.31394971e+03, 1.80993574e+04, 1.75160156e+04, 8.94193848e+03 ]
      - [ 8.66220312e+03, 8.08058838e+03, 1.30475742e+04, 5.37932666e+03,
          2.01357507e+03, 8.32316666e+01, 4.65679077e+02, 1.11928682e+04,
          4.05311963e+03, 4.14089551e+03, 3.75975439e+03, 8.05837695e+03,
          3.30355225e+03, 2.87423755e+03, 1.15966143e+04, 6.82535938e+04,
          1.28835508e+05, 1.60784414e+04, 2.17711699e+04, 3.42285078e+04,
          1.08461117e+05, 9.86041895e+03, 1.34592891e+04, 2.08758301e+04,
          3.21204281e+05, 1.16435594e+05, 1.51461156e+05, 1.78911594e+05,
          4.50509125e+05, 1.07775172e+05, 1.14709953e+05, 2.70168812e+05 ]
      - [ 5.61207764e+03, 6.45597656e+03, 3.86958765e+03, 6.94466357e+03,
          6.48129102e+03, 4.70677783e+03, 2.40159741e+03, 1.05923193e+03,
          4.22293242e+04, 3.16684297e+04, 2.34469551e+04, 1.89130957e+04,
          3.73009531e+04, 2.85749590e+04, 3.04247227e+04, 1.59362861e+04,
          4.99301992e+04, 2.28670137e+04, 1.36236465e+04, 2.82220586e+04,
          5.52207891e+04, 1.57166318e+04, 2.67476738e+04, 3.23807422e+04,
          2.46808922e+05, 232863., 1.86081766e+05, 1.60409250e+05,
          2.65446781e+05, 2.28668031e+05, 1.60374031e+05, 1.56517453e+05 ]
      - [ 2.43726392e+03, 1.49424658e+03, 6.36028137e+02, 1.11175102e+02,
          1.66946643e+03, 7.42209717e+03, 1.82498364e+03, 6.78232605e+02,
          1.64692070e+04, 1.66554004e+04, 2.31647910e+04, 2.67996523e+04,
          1.05514756e+04, 1.10556641e+04, 2.54874609e+04, 3.29330430e+04,
          9.34014062e+03, 2.51513242e+04, 2.16592305e+04, 4.48251758e+03,
          1.05100293e+04, 1.98883750e+04, 1.28061016e+04, 4.59129736e+03,
          7.72630391e+04, 1.07061398e+05, 2.14975156e+05, 1.73719625e+05,
          1.07428461e+05, 1.33490172e+05, 2.58640203e+05, 1.53081438e+05 ]
      - [ 4.24264050e+00, 0., 6., 4.24264050e+00, 0., 0., 0., 0.,
          1.51247168e+04, 3.63770386e+02, 212., 0., 1.02426405e+01,
          9.14439774e+01, 8.65415649e+02, 1.55666387e+04, 1.87279224e+01,
          0., 12., 4.24264050e+00, 1.87279224e+01, 0., 12.,
          4.24264050e+00, 5.20999414e+04, 8.03766641e+04, 6.63771875e+04,
          7.15339453e+04, 5.32848828e+04, 8.88454844e+04, 7.17000547e+04,
          4.34713555e+04 ]
      - [ 6.06344971e+03, 1.57291980e+03, 1.48114417e+03, 2.71286133e+03,
          6.11817480e+03, 1.61342126e+03, 2.05202295e+03, 3.40239966e+03,
          2.42203418e+04, 1.09878418e+04, 1.33173711e+04, 1.20565039e+04,
          2.01964375e+04, 1.76428477e+04, 1.42448125e+04, 7.28208594e+03,
          3.00730254e+04, 1.87288984e+04, 8.46041699e+03, 1.36500137e+04,
          1.99113008e+04, 1.46284023e+04, 8.39538965e+03, 8.79742578e+03,
          1.70922297e+05, 1.00027047e+05, 8.91972734e+04, 1.26439250e+05,
          1.41731734e+05, 1.07290273e+05, 1.05543172e+05, 1.37282938e+05 ]
      - [ 8.75029199e+03, 1.37357900e+04, 1.43108213e+04, 6.14798730e+03,
          7.67943262e+03, 1.64762969e+04, 1.05455898e+04, 2.85480640e+03,
          2.43229375e+04, 3.73786836e+04, 3.24667402e+04, 8.79623047e+03,
          1.39911250e+04, 2.11500234e+04, 3.16802715e+04, 3.85997461e+04,
          3.12062715e+04, 9.04693906e+04, 9.48171172e+04, 3.17906523e+04,
          3.44132812e+04, 8.46782344e+04, 1.20736617e+05, 3.11403184e+04,
          2.28948500e+05, 2.10378625e+05, 2.05418031e+05, 2.49961219e+05,
          2.45895344e+05, 1.36131016e+05, 1.80316969e+05, 2.20070609e+05 ]
      - [ 1.33075317e+03, 3.69160010e+03, 9.77038513e+02, 2.72654419e+02,
          1.12373584e+03, 3.93817920e+03, 1.88660474e+03, 5.02897034e+02,
          1.41823010e+03, 2.13696704e+03, 1.39134883e+04, 1.37526602e+04,
          25415., 1.67678711e+04, 1.03637510e+04, 9.52807251e+02,
          3.98452710e+03, 1.14073547e+03, 9.79912402e+03, 1.08354258e+04,
          6.77482178e+03, 2.66686211e+04, 3.99544414e+04, 7.37183301e+03,
          6.25411016e+04, 7.82862812e+04, 9.91757031e+04, 1.15998422e+05,
          6.89327891e+04, 6.15700312e+04, 1.25234273e+05, 1.37722422e+05 ]
      - [ 3.25300049e+03, 1.68815820e+04, 6.34605255e+01, 1.02956305e+01,
          1.56057166e+03, 1.45673425e+03, 7.37866455e+03, 1.22631318e+04,
          9.97160156e+03, 5.53674336e+04, 41028., 1.62935376e+03,
          1.78751123e+03, 1.51441895e+04, 5.55079688e+04, 8.27868848e+03,
          2.77976523e+04, 4.80081055e+04, 2.33324277e+04, 4.17837070e+04,
          3.18713672e+04, 4.31593408e+03, 2.87706055e+03, 1.18265762e+04,
          1.25230344e+05, 1.53538266e+05, 1.62193750e+05, 1.11931992e+05,
          1.22702266e+05, 1.36699266e+05, 1.40444125e+05, 1.30675695e+05 ]
      - [ 5.87564990e+03, 6.58227173e+02, 1.26905676e+03, 2.57992737e+02,
          2.31013867e+03, 4.24046436e+03, 2.31331372e+03, 2.03225098e+03,
          3.70173633e+04, 2.08423965e+04, 1.26329443e+04, 7.66896973e+03,
          1.72054512e+04, 2.63221289e+04, 2.45856738e+04, 2.27855059e+04,
          1.14892822e+04, 8.58289062e+03, 1.78671230e+04, 1.87455566e+04,
          2.42374473e+04, 1.80875430e+04, 2.12325742e+04, 2.71539629e+04,
          1.06235891e+05, 1.57407922e+05, 1.82003656e+05, 1.32237609e+05,
          1.38116500e+05, 1.71785688e+05, 2.08957500e+05, 1.31388688e+05 ]
      - [ 1.27388649e+02, 6.92896347e+01, 1.76713470e+02, 1.03307899e+02,
          2.10053177e+02, 1.74928551e+01, 1.70046021e+02, 1.14605080e+02,
          8.04926318e+03, 8.76815723e+03, 4.93806104e+03, 2.46545996e+03,
          2.00341052e+03, 9.28053516e+03, 5.01134277e+03, 7.55099707e+03,
          2.96336865e+03, 1.20930591e+03, 1.92264343e+03, 2.12835938e+03,
          3.09914355e+03, 1.42666321e+03, 1.29056506e+03, 1.13509717e+03,
          9.04284688e+04, 4.46162188e+04, 7.70791406e+04, 9.07109297e+04,
          8.63045469e+04, 6.38761211e+04, 5.53334258e+04, 9.02046953e+04 ]
      - [ 0., 0., 0., 0., 0., 0., 0., 0., 0., 0., 0., 0., 0., 0., 0., 0.,
          7.01168640e+02, 5.76597266e+03, 4.20209766e+03, 1.15707275e+03,
          2.43700781e+03, 2.15625952e+03, 6.30268506e+03, 3.08402313e+02,
          7.52325244e+03, 1.61846318e+04, 2.05393086e+04, 7.14017090e+03,
          7.31394971e+03, 1.80993574e+04, 1.75160156e+04, 8.94193848e+03 ]
      - [ 1.99998520e+02, 4.96290131e+02, 6.27612732e+02, 2.21170303e+02,
          2.61481201e+02, 1.00290176e+02, 2.28506989e+02, 1.27231033e+02,
          1.86493262e+04, 2.33784863e+04, 7.37428467e+03, 4.88899219e+03,
          1.02795986e+04, 1.68966133e+04, 7.18142725e+03, 2.82409595e+03,
          6.36981396e+03, 4.21030566e+03, 3.90276562e+03, 3.01322290e+03,
          2.90998511e+03, 1.67861670e+03, 4.14338428e+03, 1.96328398e+04,
          9.30061953e+04, 8.49193750e+04, 4.09292930e+04, 3.69176836e+04,
          94687., 9.47623906e+04, 4.21725586e+04, 4.16047188e+04 ]
      - [ 4.92631641e+03, 1.36215698e+03, 3.18561328e+03, 1.46461218e+03,
          3.47169580e+03, 1.07001484e+04, 3.16823242e+03, 1.48049829e+03,
          5.28834219e+04, 3.81944062e+04, 3.93820625e+04, 2.08280039e+04,
          2.27553242e+04, 2.86799004e+04, 4.94336602e+04, 6.17311055e+04,
          2.02961797e+04, 2.24059375e+04, 2.54548320e+04, 1.30935996e+04,
          1.00088164e+04, 1.01640508e+04, 9.82395703e+03, 1.11652422e+04,
          1.64290188e+05, 1.99931453e+05, 1.74290219e+05, 2.14314922e+05,
          2.22656797e+05, 1.94567750e+05, 1.83886156e+05, 1.94100016e+05 ]
      - [ 6.76375122e+01, 7.37917419e+02, 5.30359229e+03, 1.05498207e+02,
          6.96568527e+01, 3.91635406e+02, 1.35678162e+03, 1.07715782e+02,
          8.69186328e+03, 1.33111836e+04, 3.67212344e+04, 1.16827471e+04,
          1.62195078e+04, 2.73275000e+04, 4.75134062e+04, 6.21644287e+03,
          1.85974121e+03, 1.01899795e+04, 1.46793750e+04, 2.61434375e+03,
          2.77178320e+03, 1.91808508e+03, 3.37883081e+03, 7.30858459e+02,
          1.32763984e+05, 1.37530438e+05, 1.84883594e+05, 1.38699250e+05,
          1.90811156e+05, 2.10022938e+05, 1.83076953e+05, 1.30225828e+05 ]
      - [ 4.78290088e+03, 3.35041931e+02, 2.91002563e+02, 1.81552344e+03,
          5.51373340e+03, 1.70470557e+03, 5.45165527e+03, 5.70870166e+03,
          2.44044512e+04, 1.53613184e+04, 1.30222559e+04, 1.88564688e+04,
          2.24281992e+04, 1.06966484e+04, 1.09533008e+04, 1.97084629e+04,
          3.58287188e+04, 3.78134922e+04, 2.19489766e+04, 2.06505020e+04,
          4.18917188e+04, 2.72440312e+04, 2.99187793e+04, 2.10774199e+04,
          1.74178969e+05, 1.28200672e+05, 1.33278125e+05, 1.55147656e+05,
          1.84786672e+05, 1.21164500e+05, 1.57823844e+05, 1.62444188e+05 ]
      - [ 1.99530554e+03, 2.89645337e+03, 2.81849170e+03, 2.11622290e+03,
          4.93599170e+03, 7.42449121e+03, 4.74152734e+03, 3.51628931e+03,
          2.83891270e+04, 1.89850586e+04, 1.99762246e+04, 1.20824307e+04,
          1.81045449e+04, 1.59497188e+04, 1.66977031e+04, 1.84885137e+04,
          3.16887207e+04, 1.66718594e+04, 3.03436602e+04, 5.32222266e+04,
          3.40558281e+04, 1.16653271e+04, 2.49427422e+04, 4.59455508e+04,
          1.23992008e+05, 1.31686203e+05, 1.58729484e+05, 1.34863172e+05,
          1.14864453e+05, 1.16369289e+05, 1.37143672e+05, 1.06492117e+05 ]
      - [ 3.47138403e+03, 2.45157422e+03, 1.09880430e+04, 6.85796045e+03,
          9.18001074e+03, 3.51500977e+03, 2.92013110e+03, 3.37960864e+03,
          1.02612783e+04, 2.13100469e+04, 2.16677246e+04, 1.59877559e+04,
          2.83368379e+04, 3.65533711e+04, 1.98628281e+04, 1.40071846e+04,
          3.72874883e+04, 2.98769395e+04, 2.53624414e+04, 4.10381875e+04,
          2.33867344e+04, 4.50597217e+03, 8.20239844e+03, 3.57724766e+04,
          1.40503594e+05, 1.45824406e+05, 1.05892414e+05, 2.04667266e+05,
          1.54551547e+05, 1.39526859e+05, 1.25055727e+05, 2.31521969e+05 ]
      - [ 1.03416182e+04, 5.68182910e+03, 8.20317773e+03, 5.72754736e+03,
          9.62066895e+03, 5.58955859e+03, 6.79089941e+03, 6.83496924e+03,
          4.44587266e+04, 5.47310312e+04, 5.18895117e+04, 2.74514629e+04,
          4.13503672e+04, 5.22746367e+04, 4.80765234e+04, 3.29656289e+04,
          7.37217578e+04, 3.81188359e+04, 5.08083359e+04, 3.28193477e+04,
          5.91131680e+04, 5.82291797e+04, 4.00786797e+04, 4.53124805e+04,
          2.65093281e+05, 2.87734156e+05, 2.48275906e+05, 2.17853141e+05,
          2.37927016e+05, 2.79099625e+05, 2.90090812e+05, 2.04516453e+05 ]
      - [ 8.39474609e+02, 1.51452832e+03, 4.15250781e+03, 3.77788672e+03,
          5.67391357e+03, 6.09566602e+03, 5.10401562e+03, 7.96380798e+02,
          1.46270322e+04, 4.84232578e+04, 3.81463828e+04, 9.89955664e+03,
          1.77781562e+04, 4.26673711e+04, 4.25679844e+04, 1.43458408e+04,
          1.40682217e+04, 1.77738750e+04, 1.95772324e+04, 1.24222021e+04,
          1.18680664e+04, 9.88487207e+03, 1.59816650e+04, 2.09351289e+04,
          9.39695547e+04, 1.87672938e+05, 2.02492266e+05, 1.63003078e+05,
          1.19877984e+05, 2.26114047e+05, 1.99248906e+05, 1.12426281e+05 ]
      - [ 4.40548920e+02, 1.55164685e+03, 1.37231421e+03, 9.97306747e+01,
          90., 0., 0., 1.41421354e+00, 2.58376147e+03, 4.86759619e+03,
          1.49765488e+04, 5.89109863e+03, 3.41161743e+03, 4.75780469e+03,
          8.00799658e+03, 6.19572607e+03, 1.96672046e+03, 7.02467383e+03,
          7.72888428e+03, 1.36089661e+03, 4.90308441e+02, 1.27334328e+01,
          2.11622772e+01, 1.02182083e+02, 1.50323125e+05, 1.82342219e+05,
          2.04117531e+05, 1.40064547e+05, 1.61442984e+05, 1.65587078e+05,
          1.89465234e+05, 1.62316844e+05 ]
      - [ 3.24046504e+04, 1.26197083e+03, 2.79515576e+03, 1.51932220e+02,
          1.13895430e+04, 2.35969785e+04, 9.00712280e+02, 3.28247632e+03,
          4.89027930e+04, 1.35661064e+04, 6.22031494e+03, 2.14894082e+04,
          4.91762461e+04, 1.55820518e+04, 1.20677344e+04, 2.57963438e+04,
          3.98614531e+04, 2.79735703e+04, 1.29757422e+04, 2.32928613e+04,
          2.49367070e+04, 4.90201406e+04, 2.12901387e+04, 1.44474785e+04,
          2.61130453e+05, 1.20910383e+05, 1.80619375e+05, 1.53246047e+05,
          2.43151266e+05, 1.24680922e+05, 1.45346641e+05, 1.90459875e+05 ]
      - [ 3.38520625e+04, 3.47762378e+03, 1.97489941e+03, 3.91086502e+01,
          1.26029504e+03, 2.83913916e+03, 8.69403809e+03, 1.21754658e+04,
          6.07576172e+04, 2.98651699e+04, 2.64054883e+04, 4.32434453e+04,
          5.38653516e+04, 2.67427832e+04, 2.71158965e+04, 4.13044883e+04,
          2.19687070e+04, 1.12759072e+04, 9.44534473e+03, 1.19023506e+04,
          5.13195508e+04, 3.56516367e+04, 1.54587100e+04, 1.35445283e+04,
          1.95923062e+05, 2.07285594e+05, 1.79524375e+05, 2.03039516e+05,
          2.05612484e+05, 1.48997328e+05, 2.04224188e+05, 2.22116375e+05 ]
      - [ 0., 0., 0., 0., 0., 0., 0., 0., 2.68401816e+04, 1.67927598e+04,
          1.77268047e+04, 8.24845801e+03, 1.43481113e+04, 1.18602529e+04,
          1.78856680e+04, 1.04011729e+04, 1.88652383e+04, 2.52710371e+04,
          3.38698125e+04, 8.33778320e+03, 5.93940186e+03, 1.58279932e+03,
          4.27750293e+03, 4.36205664e+03, 1.59930672e+05, 2.34142406e+05,
          2.03832562e+05, 1.34490375e+05, 1.74590609e+05, 2.63712750e+05,
          2.08495734e+05, 1.64040750e+05 ]
      - [ 2.14570093e+03, 8.68876465e+02, 2.17300610e+03, 5.87825488e+03,
          2.03457617e+04, 2.17204834e+03, 5.69591309e+02, 6.02875549e+02,
          5.48957373e+03, 4.14458154e+03, 7.59254346e+03, 8.91832324e+03,
          3.70960820e+04, 8.29573047e+03, 9.35676758e+03, 3.44602808e+03,
          2.57011758e+04, 7.74699561e+03, 9.16028418e+03, 1.26271240e+04,
          2.35451133e+04, 8.73892578e+03, 8.36848242e+03, 1.10735645e+04,
          2.31700859e+05, 7.06620703e+04, 6.20986523e+04, 1.10750781e+05,
          1.73972188e+05, 8.56565703e+04, 6.62890391e+04, 1.15177195e+05 ]
      - [ 1.80078223e+03, 1.00241736e+03, 1.04385571e+03, 1.84869995e+02,
          3.24411896e+02, 3.76809448e+02, 3.17764526e+02, 1.06507349e+03,
          5.34815625e+04, 2.05365918e+04, 1.73839004e+04, 7.52029150e+03,
          1.24357744e+04, 1.33815967e+04, 2.14702363e+04, 3.12186660e+04,
          5.29401221e+03, 2.03295312e+04, 1.01337480e+04, 5.85264404e+03,
          5.73317236e+03, 1.74462930e+04, 5.82056641e+03, 5.46671631e+03,
          1.62036859e+05, 1.98588094e+05, 2.20601547e+05, 1.36823312e+05,
          1.47080922e+05, 1.64293062e+05, 1.68771359e+05, 1.31946344e+05 ]
      - [ 4.08279736e+03, 8.42671973e+03, 3.15257178e+03, 9.94814087e+02,
          5.91816357e+03, 7.04340332e+03, 8.58725195e+03, 3.82300903e+03,
          1.73147266e+04, 3.06047773e+04, 30773., 1.64153203e+04,
          2.04339219e+04, 3.38647812e+04, 4.62061133e+04, 1.08056943e+04,
          5.03420781e+04, 7.27831328e+04, 3.17019121e+04, 5.51400156e+04,
          5.95213047e+04, 5.08223750e+04, 5.35452070e+04, 2.70758770e+04,
          3.22398125e+05, 2.53983984e+05, 2.35663438e+05, 3.15392750e+05,
          3.31793156e+05, 191592., 1.89412875e+05, 331946. ]
      - [ 0., 0., 0., 0., 0., 0., 0., 0., 0., 0., 0., 0., 0., 0., 0., 0.,
          7.01168579e+02, 5.76597266e+03, 4.20209766e+03, 1.15707275e+03,
          2.43700781e+03, 2.15625952e+03, 6.30268506e+03, 3.08402344e+02,
          7.52325244e+03, 1.61846318e+04, 2.05393086e+04, 7.14017090e+03,
          7.31394971e+03, 1.80993574e+04, 1.75160156e+04, 8.94193848e+03 ]
      - [ 4.50627832e+03, 5.31412549e+03, 2.57626880e+03, 1.35375732e+03,
          1.04415312e+04, 1.11954126e+03, 2.24358838e+03, 1.10527356e+03,
          2.45794355e+04, 2.80118652e+04, 1.76175762e+04, 1.63767686e+04,
          2.41283281e+04, 3.24521934e+04, 2.45325801e+04, 1.72674414e+04,
          1.75906621e+04, 1.15238262e+04, 1.29812314e+04, 2.07291191e+04,
          2.67116797e+04, 3.29451875e+04, 3.43405625e+04, 2.02444883e+04,
          1.47848438e+05, 1.68143156e+05, 1.43715953e+05, 1.50044797e+05,
          1.64646484e+05, 1.67516109e+05, 1.64525547e+05, 1.34618156e+05 ]
      - [ 1.08644141e+03, 9.85490112e+02, 6.86448181e+02, 7.34680847e+02,
          6.77531128e+02, 3.60989914e+01, 1.69162277e+02, 3.69984131e+01,
          2.33097949e+04, 1.71697812e+04, 1.35526260e+04, 2.69195859e+04,
          6.45664697e+03, 1.35074590e+04, 1.45381162e+04, 6.65707578e+04,
          2.40425820e+04, 1.55863271e+04, 9.97054199e+03, 1.03023701e+04,
          1.77029375e+04, 7.49016504e+03, 4.01089233e+03, 9.18287292e+02,
          1.72334281e+05, 9.42807344e+04, 7.49764609e+04, 1.45016500e+05,
          2.05371812e+05, 1.18194477e+05, 6.81656016e+04, 9.15193516e+04 ]
      - [ 7.90150732e+03, 7.31464502e+03, 5.52823438e+03, 2.02569739e+03,
          5.49992432e+03, 1.79783223e+04, 2.77266968e+03, 1.22809399e+03,
          5.16708320e+04, 1.61622559e+04, 2.58467012e+04, 3.13385957e+04,
          6.93451953e+04, 1.02449580e+04, 3.82903242e+04, 5.22253867e+04,
          3.04706504e+04, 2.30905430e+04, 1.85983828e+04, 2.80188848e+04,
          3.04889688e+04, 1.39064453e+04, 1.00912539e+04, 3.70709570e+04,
          2.05341172e+05, 2.25984016e+05, 2.06021625e+05, 1.54874984e+05,
          1.84725906e+05, 1.96479703e+05, 1.77640609e+05, 1.47182766e+05 ]
      - [ 5.30382507e+02, 5.79658936e+02, 1.54744812e+03, 6.52177429e+02,
          1.20853247e+03, 4.37082405e+01, 6.36286475e+03, 1.50948662e+04,
          1.29457598e+04, 1.75182031e+04, 3.75972969e+04, 1.13423779e+04,
          9.79209082e+03, 1.84693828e+04, 1.77865234e+04, 2.29353535e+04,
          1.59365869e+04, 4.79469727e+03, 7.94207178e+03, 1.72757500e+04,
          2.49970332e+04, 3.27507305e+04, 3.65850742e+04, 2.14614863e+04,
          1.44137062e+05, 1.23284938e+05, 9.25599062e+04, 1.36344234e+05,
          1.88226422e+05, 9.17882109e+04, 8.80362891e+04, 1.03282758e+05 ]
      - [ 1.57307361e+03, 8.97774597e+02, 4.19880664e+03, 6.24029688e+03,
          6.61650635e+03, 3.88334131e+03, 4.31946631e+03, 2.72309058e+03,
          1.32316768e+04, 5.48544238e+03, 3.78765977e+04, 3.90357324e+03,
          4.56763330e+03, 1.00588818e+04, 6.41123086e+04, 2.10373125e+04,
          1.61232412e+04, 9.36935645e+03, 2.84510703e+04, 3.46180898e+04,
          1.38304814e+04, 1.76600586e+04, 2.64504922e+04, 1.40237236e+04,
          1.15724656e+05, 8.44128516e+04, 2.36973297e+05, 1.86982547e+05,
          9.73379219e+04, 1.01227602e+05, 2.14510719e+05, 1.75892938e+05 ]
      - [ 2.11707593e+03, 3.86950195e+02, 1.76263660e+03, 1.48977051e+03,
          9.81640381e+02, 2.77503998e+02, 1.48796179e+03, 4.10460303e+03,
          7.20189258e+03, 1.45358252e+04, 1.77636973e+04, 7.97796045e+03,
          4.42733887e+03, 4.81857861e+03, 7.27040576e+03, 6.54144971e+03,
          2.13045605e+04, 3.73304785e+03, 3.27597754e+03, 5.44053662e+03,
          9.46721484e+03, 5.72572314e+03, 1.09709404e+04, 1.60305840e+04,
          9.13011172e+04, 8.59398438e+04, 1.45091141e+05, 9.67671562e+04,
          7.30273828e+04, 6.80009375e+04, 1.00134266e+05, 1.03838727e+05 ]
      - [ 4.84172998e+03, 3.66967407e+03, 1.99856543e+04, 7.42879053e+03,
          5.78764844e+03, 9.84384082e+03, 1.21456152e+04, 7.34315039e+03,
          3.13595391e+04, 3.42977383e+04, 3.42430547e+04, 2.83288164e+04,
          3.91370938e+04, 3.73551055e+04, 3.94722969e+04, 3.32451719e+04,
          2.78075781e+04, 1.96350449e+04, 2.29337871e+04, 1.74816602e+04,
          3.53665586e+04, 4.16184453e+04, 4.47078281e+04, 3.79732383e+04,
          2.06794656e+05, 1.57423750e+05, 1.41618938e+05, 1.88932188e+05,
          1.80766016e+05, 1.62193797e+05, 1.57008172e+05, 2.24405656e+05 ]
      - [ 2.91033179e+03, 2.24833154e+03, 1.95782422e+03, 1.15315454e+03,
          3.25689136e+03, 3.18045190e+03, 3.75909277e+03, 1.08364417e+03,
          2.74707734e+04, 2.73533086e+04, 2.37386152e+04, 1.43960088e+04,
          1.58577031e+04, 2.06829629e+04, 3.17826523e+04, 3.02533887e+04,
          1.61168848e+04, 2.54507871e+04, 2.23772148e+04, 1.22984082e+04,
          1.53582754e+04, 2.61290898e+04, 1.74191230e+04, 1.03817539e+04,
          1.71785141e+05, 1.12963273e+05, 1.60045250e+05, 1.60664875e+05,
          1.99647469e+05, 1.21417688e+05, 1.32118141e+05, 1.53249281e+05 ]
      - [ 3.12434351e+03, 4.17383545e+02, 3.94248474e+02, 6.96377051e+03,
          2.37525234e+04, 7.21824707e+03, 2.18965967e+03, 3.70499561e+03,
          2.82542031e+04, 1.42036494e+04, 1.94438320e+04, 2.47915195e+04,
          4.03389062e+04, 1.65022305e+04, 2.65311855e+04, 3.64502188e+04,
          6.18637930e+04, 7.21402344e+03, 1.50736416e+04, 3.46302031e+04,
          6.27065977e+04, 6.48705430e+04, 3.82463281e+04, 4.49146211e+04,
          2.39648922e+05, 1.47781688e+05, 1.39590969e+05, 2.21441609e+05,
          2.39372344e+05, 1.59568609e+05, 1.32475547e+05, 1.46435891e+05 ]
      - [ 2.67186060e+03, 2.02595078e+02, 1.44923965e+04, 4.22842148e+04,
          3.54000098e+03, 6.62141724e+02, 1.72412012e+03, 3.72386743e+03,
          1.98690977e+04, 1.18364863e+04, 3.53171172e+04, 6.68136328e+04,
          2.17237168e+04, 2.00086914e+04, 5.77025000e+04, 7.57997031e+04,
          2.51097676e+04, 9.39936914e+03, 4.47858789e+04, 8.45411641e+04,
          1.88994863e+04, 8.02457520e+03, 5.34520195e+04, 1.12852758e+05,
          1.33359922e+05, 1.03377555e+05, 2.72383469e+05, 433266.,
          1.50557797e+05, 1.08229609e+05, 2.71189344e+05, 4.69478844e+05 ]
      - [ 6.70099060e+02, 2.56558990e+02, 5.70841003e+02, 1.70823853e+03,
          1.57065942e+03, 2.46386780e+02, 3.26010895e+02, 4.96353943e+02,
          4.26825049e+03, 1.80295142e+03, 3.07791406e+03, 5.45879932e+03,
          3.43820654e+03, 1.16807629e+03, 3.30417700e+03, 7.99569482e+03,
          4.28943633e+04, 4.57912109e+03, 1.42252422e+04, 2.77919004e+04,
          3.04158184e+04, 1.43831221e+04, 7.57465283e+03, 1.77287031e+04,
          2.07019203e+05, 7.98463125e+04, 1.25284969e+05, 1.44852078e+05,
          2.00963312e+05, 1.08398422e+05, 1.11345734e+05, 1.38639344e+05 ]
      - [ 4.71311133e+03, 5.55930542e+02, 8.79315613e+02, 2.90982812e+03,
          4.55283691e+03, 2.20993018e+03, 1.91003210e+03, 2.71773022e+03,
          3.72502266e+04, 4.63543945e+04, 5.12891953e+04, 4.19660352e+04,
          5.27368047e+04, 4.24677812e+04, 3.55610703e+04, 2.05506621e+04,
          4.61283672e+04, 2.81958984e+04, 4.75621602e+04, 2.93195059e+04,
          3.43790234e+04, 1.44106562e+04, 1.11789512e+04, 4.19501875e+04,
          3.43351938e+05, 2.00895703e+05, 1.68035031e+05, 2.93630031e+05,
          2.81515312e+05, 1.66123938e+05, 1.61914609e+05, 2.53912812e+05 ]
      - [ 5.97433301e+03, 1.84798804e+03, 9.89681702e+02, 6.52524536e+02,
          1.15795093e+03, 4.40054077e+02, 2.90630542e+03, 3.56442700e+03,
          2.04617070e+04, 1.42226729e+04, 2.37308086e+04, 9.87323828e+03,
          7.60948730e+03, 9.11851562e+03, 2.94217148e+04, 2.86021680e+04,
          1.00964609e+04, 6.04403467e+03, 1.08311445e+04, 2.56485137e+04,
          1.17427783e+04, 5.92252588e+03, 1.33794209e+04, 1.14106953e+04,
          1.36980266e+05, 9.56458438e+04, 1.14592211e+05, 1.31454859e+05,
          1.34130875e+05, 9.68887812e+04, 1.60101250e+05, 1.15313289e+05 ]
      - [ 1.64883350e+03, 3.38587074e+01, 1.96673233e+02, 1.79004785e+03,
          9.85834106e+02, 1.55201050e+02, 4.17308380e+02, 4.23931885e+03,
          2.04878086e+04, 3.71954199e+03, 3.00385815e+03, 1.36851074e+03,
          2.71753711e+03, 8.56071350e+02, 2.99369092e+03, 2.48021348e+04,
          1.11312930e+04, 2.14454272e+03, 3.23236963e+03, 1.58585684e+04,
          6.22674854e+03, 1.00649976e+03, 4.86002441e+03, 1.12715693e+04,
          8.34324297e+04, 1.22845062e+05, 1.19408156e+05, 1.64408031e+05,
          7.83229922e+04, 1.04954844e+05, 1.27852180e+05, 1.58768250e+05 ]
      - [ 9.71849414e+03, 4.42639893e+03, 3.11658838e+03, 1.33049304e+03,
          3.39212793e+03, 1.03978887e+04, 8.19315918e+03, 5.12489209e+03,
          4.28262812e+04, 3.47413242e+04, 4.25819375e+04, 4.66748125e+04,
          5.22580703e+04, 4.31582031e+04, 4.52780234e+04, 5.54577188e+04,
          4.69318320e+04, 3.10781836e+04, 3.89651250e+04, 5.82086797e+04,
          3.43627930e+04, 1.39772354e+04, 1.72883789e+04, 2.67734355e+04,
          2.59654578e+05, 206836., 1.98836281e+05, 1.99431281e+05,
          2.43542750e+05, 2.87520219e+05, 2.40916281e+05, 1.86315250e+05 ]
      - [ 5.64992871e+03, 3.69509351e+03, 1.54150098e+03, 2.17836011e+03,
          1.98873096e+03, 1.15945178e+03, 3.28738501e+03, 4.11043408e+03,
          1.70196152e+04, 1.76871758e+04, 1.77241680e+04, 2.20334531e+04,
          2.05707246e+04, 1.38472041e+04, 2.69185703e+04, 1.38334639e+04,
          1.68488828e+04, 8.44090625e+03, 1.35127881e+04, 2.95018672e+04,
          2.30039551e+04, 1.22699521e+04, 1.09764482e+04, 2.52653730e+04,
          1.32061453e+05, 9.53959219e+04, 1.11299977e+05, 1.43263234e+05,
          1.58275594e+05, 1.13076867e+05, 1.17415977e+05, 1.56468781e+05 ]
      - [ 4.37081299e+02, 4.33022998e+03, 1.70302478e+03, 1.61972510e+03,
          5.23321338e+03, 2.28759399e+03, 7.23264465e+02, 1.28423828e+02,
          4.94254541e+03, 7.78593652e+03, 2.14859004e+04, 1.54665371e+04,
